{"learner":{"attributes":{"scikit_learn":"{\"_estimator_type\": \"classifier\"}"},"feature_names":[],"feature_types":[],"gradient_booster":{"model":{"cats":{"enc":[],"feature_segments":[],"sorted_idx":[]},"gbtree_model_param":{"num_parallel_tree":"1","num_trees":"600"},"iteration_indptr":[0,3,6,9,12,15,18,21,24,27,30,33,36,39,42,45,48,51,54,57,60,63,66,69,72,75,78,81,84,87,90,93,96,99,102,105,108,111,114,117,120,123,126,129,132,135,138,141,144,147,150,153,156,159,162,165,168,171,174,177,180,183,186,189,192,195,198,201,204,207,210,213,216,219,222,225,228,231,234,237,240,243,246,249,252,255,258,261,264,267,270,273,276,279,282,285,288,291,294,297,300,303,306,309,312,315,318,321,324,327,330,333,336,339,342,345,348,351,354,357,360,363,366,369,372,375,378,381,384,387,390,393,396,399,402,405,408,411,414,417,420,423,426,429,432,435,438,441,444,447,450,453,456,459,462,465,468,471,474,477,480,483,486,489,492,495,498,501,504,507,510,513,516,519,522,525,528,531,534,537,540,543,546,549,552,555,558,561,564,567,570,573,576,579,582,585,588,591,594,597,600],"tree_info":[0,1,2,0,1,2,0,1,2,0,1,2,0,1,2,0,1,2,0,1,2,0,1,2,0,1,2,0,1,2,0,1,2,0,1,2,0,1,2,0,1,2,0,1,2,0,1,2,0,1,2,0,1,2,0,1,2,0,1,2,0,1,2,0,1,2,0,1,2,0,1,2,0,1,2,0,1,2,0,1,2,0,1,2,0,1,2,0,1,2,0,1,2,0,1,2,0,1,2,0,1,2,0,1,2,0,1,2,0,1,2,0,1,2,0,1,2,0,1,2,0,1,2,0,1,2,0,1,2,0,1,2,0,1,2,0,1,2,0,1,2,0,1,2,0,1,2,0,1,2,0,1,2,0,1,2,0,1,2,0,1,2,0,1,2,0,1,2,0,1,2,0,1,2,0,1,2,0,1,2,0,1,2,0,1,2,0,1,2,0,1,2,0,1,2,0,1,2,0,1,2,0,1,2,0,1,2,0,1,2,0,1,2,0,1,2,0,1,2,0,1,2,0,1,2,0,1,2,0,1,2,0,1,2,0,1,2,0,1,2,0,1,2,0,1,2,0,1,2,0,1,2,0,1,2,0,1,2,0,1,2,0,1,2,0,1,2,0,1,2,0,1,2,0,1,2,0,1,2,0,1,2,0,1,2,0,1,2,0,1,2,0,1,2,0,1,2,0,1,2,0,1,2,0,1,2,0,1,2,0,1,2,0,1,2,0,1,2,0,1,2,0,1,2,0,1,2,0,1,2,0,1,2,0,1,2,0,1,2,0,1,2,0,1,2,0,1,2,0,1,2,0,1,2,0,1,2,0,1,2,0,1,2,0,1,2,0,1,2,0,1,2,0,1,2,0,1,2,0,1,2,0,1,2,0,1,2,0,1,2,0,1,2,0,1,2,0,1,2,0,1,2,0,1,2,0,1,2,0,1,2,0,1,2,0,1,2,0,1,2,0,1,2,0,1,2,0,1,2,0,1,2,0,1,2,0,1,2,0,1,2,0,1,2,0,1,2,0,1,2,0,1,2,0,1,2,0,1,2,0,1,2,0,1,2,0,1,2,0,1,2,0,1,2,0,1,2,0,1,2,0,1,2,0,1,2,0,1,2,0,1,2,0,1,2,0,1,2,0,1,2,0,1,2,0,1,2,0,1,2,0,1,2,0,1,2,0,1,2,0,1,2,0,1,2,0,1,2,0,1,2,0,1,2,0,1,2,0,1,2,0,1,2,0,1,2,0,1,2,0,1,2,0,1,2,0,1,2,0,1,2,0,1,2,0,1,2,0,1,2,0,1,2,0,1,2,0,1,2,0,1,2,0,1,2,0,1,2,0,1,2,0,1,2,0,1,2,0,1,2],"trees":[{"base_weights":[1.7564991E-1,3.153204E-1,-6.9392914E-1,1.0139501E0,2.3393741E-1,-7.2203034E-1,-6.9264635E-3,4.1033158E-1,1.0659386E0,-5.366443E-2,4.0125635E-1,-3.9447248E-1,-7.299018E-1,-4.3728814E-1,5.2740432E-2,3.0752078E-2,-1.2330121E-2,5.701954E-2,4.4382975E-2,-1.446023E-2,1.8317588E-2,2.6349703E-2,1.1205609E-2,-3.2155856E-2,-6.50016E-3,-3.6995452E-2,-2.6698697E-2,3.3456886E-3,-3.482262E-2],"categories":[],"categories_nodes":[],"categories_segments":[],"categories_sizes":[],"default_left":[0,0,0,0,0,0,0,0,0,0,0,0,0,0,0,0,0,0,0,0,0,0,0,0,0,0,0,0,0],"id":0,"left_children":[1,3,5,7,9,11,13,15,17,19,21,23,25,27,-1,-1,-1,-1,-1,-1,-1,-1,-1,-1,-1,-1,-1,-1,-1],"loss_changes":[1.6095088E2,6.477567E1,3.5386505E0,3.5136185E0,4.9235558E1,3.103714E-1,3.7548711E0,1.4534951E0,9.431839E-1,3.7317554E1,1.4346672E1,3.0166382E-1,1.387024E-1,7.8664696E-1,0E0,0E0,0E0,0E0,0E0,0E0,0E0,0E0,0E0,0E0,0E0,0E0,0E0,0E0,0E0],"parents":[2147483647,0,0,1,1,2,2,3,3,4,4,5,5,6,6,7,7,8,8,9,9,10,10,11,11,12,12,13,13],"right_children":[2,4,6,8,10,12,14,16,18,20,22,24,26,28,-1,-1,-1,-1,-1,-1,-1,-1,-1,-1,-1,-1,-1,-1,-1],"split_conditions":[6.362235E0,5.2279496E0,6.689453E-1,6.292114E-1,5.38664E0,8.6053467E-1,1.0637752E0,6.496887E-1,5.032866E0,1.0528378E0,1.6714718E7,6.5523386E0,3.2214355E-1,7.651367E-1,5.2740432E-2,3.0752078E-2,-1.2330121E-2,5.701954E-2,4.4382975E-2,-1.446023E-2,1.8317588E-2,2.6349703E-2,1.1205609E-2,-3.2155856E-2,-6.50016E-3,-3.6995452E-2,-2.6698697E-2,3.3456886E-3,-3.482262E-2],"split_indices":[0,0,3,9,0,9,7,3,0,7,10,0,4,3,0,0,0,0,0,0,0,0,0,0,0,0,0,0,0],"split_type":[0,0,0,0,0,0,0,0,0,0,0,0,0,0,0,0,0,0,0,0,0,0,0,0,0,0,0,0,0],"sum_hessian":[1.3237938E3,1.140868E3,1.829258E2,1.1843517E2,1.0224328E3,1.7571292E2,7.2128725E0,9.744276E0,1.086909E2,3.761736E2,6.462592E2,4.7231364E0,1.7098979E2,5.3417335E0,1.871139E0,7.453534E0,2.2907424E0,7.476817E1,3.392273E1,2.4111491E2,1.350587E2,3.7739508E2,2.688641E2,2.0654297E0,2.657707E0,1.6135986E2,9.629918E0,1.9394512E0,3.402282E0],"tree_param":{"num_deleted":"0","num_feature":"11","num_nodes":"29","size_leaf_vector":"1"}},{"base_weights":[1.0599096E-1,2.4419364E-1,-6.4367324E-1,5.404023E-1,-4.495732E-2,-6.832046E-1,-5.258585E-2,8.596445E-1,2.520943E-1,-5.113451E-1,8.5894264E-2,-7.4393845E-1,-3.7346822E-1,1.4248799E-1,-3.2821022E-2,-2.0247834E-2,4.5433257E-2,-1.4103842E-2,1.7014567E-2,7.625711E-3,-2.7399296E-2,3.0707303E-2,8.1280107E-4,-3.8154762E-2,-3.2320343E-2,4.876617E-2,-2.4776421E-2,2.8367525E-2,-6.6164793E-3],"categories":[],"categories_nodes":[],"categories_segments":[],"categories_sizes":[],"default_left":[0,0,0,0,0,0,0,0,0,0,0,0,0,0,0,0,0,0,0,0,0,0,0,0,0,0,0,0,0],"id":1,"left_children":[1,3,5,7,9,11,13,15,17,19,21,23,25,27,-1,-1,-1,-1,-1,-1,-1,-1,-1,-1,-1,-1,-1,-1,-1],"loss_changes":[1.365876E2,9.5327065E1,4.777504E0,5.0491302E1,3.441697E1,3.4789352E0,1.6259797E0,1.6343643E1,1.3690857E1,3.0471344E0,1.6201128E1,5.2848816E-2,5.597641E0,1.2686508E0,0E0,0E0,0E0,0E0,0E0,0E0,0E0,0E0,0E0,0E0,0E0,0E0,0E0,0E0,0E0],"parents":[2147483647,0,0,1,1,2,2,3,3,4,4,5,5,6,6,7,7,8,8,9,9,10,10,11,11,12,12,13,13],"right_children":[2,4,6,8,10,12,14,16,18,20,22,24,26,28,-1,-1,-1,-1,-1,-1,-1,-1,-1,-1,-1,-1,-1,-1,-1],"split_conditions":[9.581909E-1,2.4550967E-1,1.6571045E-2,5.407843E0,5.30746E0,4.6279907E-2,7.9599E-1,8.772278E-2,1.053772E-1,2.5179935E-1,5.0154114E-1,4.3640137E-3,8.421936E-1,9.6881104E-1,-3.2821022E-2,-2.0247834E-2,4.5433257E-2,-1.4103842E-2,1.7014567E-2,7.625711E-3,-2.7399296E-2,3.0707303E-2,8.1280107E-4,-3.8154762E-2,-3.2320343E-2,4.876617E-2,-2.4776421E-2,2.8367525E-2,-6.6164793E-3],"split_indices":[9,8,1,0,0,5,3,5,5,8,3,5,3,9,0,0,0,0,0,0,0,0,0,0,0,0,0,0,0],"split_type":[0,0,0,0,0,0,0,0,0,0,0,0,0,0,0,0,0,0,0,0,0,0,0,0,0,0,0,0,0],"sum_hessian":[1.3170833E3,1.1123546E3,2.0472855E2,5.4925684E2,5.630978E2,1.9182178E2,1.2906762E1,2.601752E2,2.8908167E2,1.23052826E2,4.4004498E2,1.5978903E2,3.2032757E1,1.0043983E1,2.8627791E0,9.57352E0,2.5060168E2,4.0810574E1,2.4827109E2,6.3537745E0,1.1669905E2,5.0798145E1,3.8924683E2,1.3070456E2,2.9084465E1,2.368215E0,2.966454E1,3.7359881E0,6.3079953E0],"tree_param":{"num_deleted":"0","num_feature":"11","num_nodes":"29","size_leaf_vector":"1"}},{"base_weights":[-3.2739285E-1,1.6664891E0,-5.665056E-1,1.6890281E0,9.348824E-3,-6.323387E-1,-2.5498462E-1,1.4709184E-2,1.7070135E0,-6.37982E-1,-1.615366E-1,-7.469804E-2,-4.6952525E-1,4.5270115E-2,8.581679E-2,-3.012975E-2,-3.440348E-2,8.927593E-3,-3.078725E-2,-2.2741837E-2,5.2427463E-3,-2.5722886E-2,-5.486099E-3],"categories":[],"categories_nodes":[],"categories_segments":[],"categories_sizes":[],"default_left":[0,0,0,0,0,0,0,0,0,0,0,0,0,0,0,0,0,0,0,0,0,0,0],"id":2,"left_children":[1,3,5,7,-1,9,11,-1,13,15,17,19,21,-1,-1,-1,-1,-1,-1,-1,-1,-1,-1],"loss_changes":[5.4881635E2,3.953308E0,2.098877E1,2.7937622E0,0E0,2.2009583E0,6.9473534E0,0E0,1.177063E-1,1.2772827E0,1.7095463E0,6.7429214E0,1.2995472E0,0E0,0E0,0E0,0E0,0E0,0E0,0E0,0E0,0E0,0E0],"parents":[2147483647,0,0,1,1,2,2,3,3,5,5,6,6,8,8,9,9,10,10,11,11,12,12],"right_children":[2,4,6,8,-1,10,12,-1,14,16,18,20,22,-1,-1,-1,-1,-1,-1,-1,-1,-1,-1],"split_conditions":[1.02392E0,2.9159546E-2,7.949829E-3,3.1433105E-3,9.348824E-3,1.595459E-1,1.1354713E0,1.4709184E-2,3.112793E-3,1.6714718E7,1.925354E-1,3.3375823E-1,1.1696461E1,4.5270115E-2,8.581679E-2,-3.012975E-2,-3.440348E-2,8.927593E-3,-3.078725E-2,-2.2741837E-2,5.2427463E-3,-2.5722886E-2,-5.486099E-3],"split_indices":[7,5,4,6,0,5,7,0,5,10,5,8,8,0,0,0,0,0,0,0,0,0,0],"split_type":[0,0,0,0,0,0,0,0,0,0,0,0,0,0,0,0,0,0,0,0,0,0,0],"sum_hessian":[1.1496411E3,1.2278587E2,1.0268552E3,1.20873665E2,1.9122071E0,8.472853E2,1.7956992E2,1.6491976E0,1.19224464E2,8.370741E2,1.021123E1,9.794073E1,8.162918E1,1.9345877E0,1.1728988E2,4.9433795E2,3.427361E2,6.012683E0,4.1985474E0,3.117414E1,6.676659E1,7.2375916E1,9.253265E0],"tree_param":{"num_deleted":"0","num_feature":"11","num_nodes":"23","size_leaf_vector":"1"}},{"base_weights":[1.5797518E-1,2.973416E-1,-6.7425835E-1,9.3126065E-1,2.2496174E-1,-6.941403E-1,-7.009213E-2,3.2808843E-1,9.9912995E-1,-6.772824E-2,3.787655E-1,-7.0619893E-1,-3.5734716E-1,4.3026766E-1,-5.342089E-1,3.0260026E-3,4.1782867E-2,5.5018563E-2,3.433508E-2,-1.6828774E-2,1.574528E-2,2.4948394E-2,1.0430944E-2,-3.1073079E-2,-3.7749164E-2,-3.3947952E-2,-2.3828172E-3,-1.04908785E-2,3.8314678E-2,-3.19711E-2,-1.0793439E-2],"categories":[],"categories_nodes":[],"categories_segments":[],"categories_sizes":[],"default_left":[0,0,0,0,0,0,0,0,0,0,0,0,0,0,0,0,0,0,0,0,0,0,0,0,0,0,0,0,0,0,0],"id":3,"left_children":[1,3,5,7,9,11,13,15,17,19,21,23,25,27,29,-1,-1,-1,-1,-1,-1,-1,-1,-1,-1,-1,-1,-1,-1,-1,-1],"loss_changes":[1.5802861E2,5.3424995E1,2.3235931E0,4.723839E0,4.7179707E1,6.4212036E-1,1.6902485E0,1.7158318E0,3.0091019E0,3.7224728E1,1.399675E1,5.1831055E-1,7.359544E-1,8.42068E-1,5.63277E-2,0E0,0E0,0E0,0E0,0E0,0E0,0E0,0E0,0E0,0E0,0E0,0E0,0E0,0E0,0E0,0E0],"parents":[2147483647,0,0,1,1,2,2,3,3,4,4,5,5,6,6,7,7,8,8,9,9,10,10,11,11,12,12,13,13,14,14],"right_children":[2,4,6,8,10,12,14,16,18,20,22,24,26,28,30,-1,-1,-1,-1,-1,-1,-1,-1,-1,-1,-1,-1,-1,-1,-1,-1],"split_conditions":[6.362235E0,5.2279496E0,6.689453E-1,6.806793E-1,5.383083E0,1.0391235E-2,9.4184875E-1,1.1917114E-2,2.1438599E-2,2.4749167E-1,1.6714718E7,3.70636E-1,3.7750244E-2,6.286621E-3,9.5936584E-1,3.0260026E-3,4.1782867E-2,5.5018563E-2,3.433508E-2,-1.6828774E-2,1.574528E-2,2.4948394E-2,1.0430944E-2,-3.1073079E-2,-3.7749164E-2,-3.3947952E-2,-2.3828172E-3,-1.04908785E-2,3.8314678E-2,-3.19711E-2,-1.0793439E-2],"split_indices":[0,0,3,9,0,6,9,6,6,8,10,3,1,6,9,0,0,0,0,0,0,0,0,0,0,0,0,0,0,0,0],"split_type":[0,0,0,0,0,0,0,0,0,0,0,0,0,0,0,0,0,0,0,0,0,0,0,0,0,0,0,0,0,0,0],"sum_hessian":[1.3611228E3,1.1661584E3,1.9496436E2,1.1889715E2,1.0472612E3,1.8868077E2,6.283591E0,1.2320314E1,1.06576836E2,3.6084662E2,6.864147E2,1.8162926E2,7.051516E0,3.0412812E0,3.2423096E0,8.433929E0,3.8863854E0,7.9540886E1,2.703595E1,2.119711E2,1.4887552E2,4.0167773E2,2.847369E2,6.887106E1,1.1275819E2,3.1667147E0,3.8848011E0,1.1116084E0,1.9296728E0,2.057867E0,1.1844425E0],"tree_param":{"num_deleted":"0","num_feature":"11","num_nodes":"31","size_leaf_vector":"1"}},{"base_weights":[9.163394E-2,2.1666645E-1,-6.2204987E-1,5.2890795E-1,-5.6458145E-2,-6.441775E-1,4.7472514E-2,8.7255955E-1,2.682595E-1,-5.200539E-1,4.863427E-2,-7.2961795E-1,-3.166009E-1,4.552698E-2,-8.783671E-3,1.880878E-2,1.7445838E-3,2.332264E-3,-2.9859707E-2,1.2111164E-2,-1.0931564E-2,-3.687225E-2,-1.9821545E-2,-2.5986185E-2,1.719404E-2],"categories":[],"categories_nodes":[],"categories_segments":[],"categories_sizes":[],"default_left":[0,0,0,0,0,0,0,0,0,0,0,0,0,0,0,0,0,0,0,0,0,0,0,0,0],"id":4,"left_children":[1,3,5,7,9,11,-1,13,15,17,19,21,23,-1,-1,-1,-1,-1,-1,-1,-1,-1,-1,-1,-1],"loss_changes":[1.1609294E2,9.440201E1,7.050644E0,4.614328E1,2.8797716E1,5.246193E0,0E0,8.9396515E0,7.408148E0,4.788748E0,2.4969978E1,2.4906921E-1,5.5245423E0,0E0,0E0,0E0,0E0,0E0,0E0,0E0,0E0,0E0,0E0,0E0,0E0],"parents":[2147483647,0,0,1,1,2,2,3,3,4,4,5,5,7,7,8,8,9,9,10,10,11,11,12,12],"right_children":[2,4,6,8,10,12,-1,14,16,18,20,22,24,-1,-1,-1,-1,-1,-1,-1,-1,-1,-1,-1,-1],"split_conditions":[9.579773E-1,2.4337508E-1,6.454468E-3,5.4005623E0,5.2564106E0,6.9122314E-3,4.7472514E-2,1.6204834E-2,5.468438E0,6.806793E-1,1.499939E-2,1.6571045E-2,5.667892E0,4.552698E-2,-8.783671E-3,1.880878E-2,1.7445838E-3,2.332264E-3,-2.9859707E-2,1.2111164E-2,-1.0931564E-2,-3.687225E-2,-1.9821545E-2,-2.5986185E-2,1.719404E-2],"split_indices":[9,8,2,0,0,6,0,6,0,9,6,1,0,0,0,0,0,0,0,0,0,0,0,0,0],"split_type":[0,0,0,0,0,0,0,0,0,0,0,0,0,0,0,0,0,0,0,0,0,0,0,0,0],"sum_hessian":[1.299744E3,1.1062795E3,1.934644E2,5.1595795E2,5.9032166E2,1.9106908E2,2.395319E0,2.2203816E2,2.9391977E2,1.0872539E2,4.8159625E2,1.5105608E2,4.0013004E1,2.1433786E2,7.7003064E0,2.0077127E2,9.314849E1,1.305037E1,9.567502E1,2.7932156E2,2.0227472E2,1.4699628E2,4.0597987E0,3.0683298E1,9.329705E0],"tree_param":{"num_deleted":"0","num_feature":"11","num_nodes":"25","size_leaf_vector":"1"}},{"base_weights":[-3.148322E-1,-5.7207006E-1,1.5166097E0,-6.152982E-1,-3.2540628E-1,1.5335039E0,-2.344126E-2,-5.768284E-1,-6.693242E-1,1.632053E-1,-4.5543405E-1,7.826661E-2,9.69098E-1,-2.9561326E-2,-2.3236943E-2,-1.3945201E-2,-3.3713948E-2,-2.5302896E-2,2.718474E-2,-2.5084918E-2,5.076416E-3,5.3563E-2,1.809995E-2],"categories":[],"categories_nodes":[],"categories_segments":[],"categories_sizes":[],"default_left":[0,0,0,0,0,0,0,0,0,0,0,0,0,0,0,0,0,0,0,0,0,0,0],"id":5,"left_children":[1,3,5,7,9,11,-1,13,15,17,19,-1,21,-1,-1,-1,-1,-1,-1,-1,-1,-1,-1],"loss_changes":[5.318648E2,1.0450348E1,5.0239563E0,1.5555725E0,9.478689E0,1.7207031E0,0E0,6.6156006E-1,5.7684326E-1,8.185211E0,3.053276E0,0E0,3.4444427E-1,0E0,0E0,0E0,0E0,0E0,0E0,0E0,0E0,0E0,0E0],"parents":[2147483647,0,0,1,1,2,2,3,3,4,4,5,5,7,7,8,8,9,9,10,10,12,12],"right_children":[2,4,6,8,10,12,-1,14,16,18,20,-1,22,-1,-1,-1,-1,-1,-1,-1,-1,-1,-1],"split_conditions":[7.1537185E0,1.0314941E-2,7.417297E-2,1.6714718E7,5.2642822E-2,5.264282E-3,-2.344126E-2,5.4920483E0,9.243469E-1,1.7349243E-2,1.1696461E1,7.826661E-2,9.185791E-3,-2.9561326E-2,-2.3236943E-2,-1.3945201E-2,-3.3713948E-2,-2.5302896E-2,2.718474E-2,-2.5084918E-2,5.076416E-3,5.3563E-2,1.809995E-2],"split_indices":[0,1,1,10,1,6,0,0,9,6,8,0,6,0,0,0,0,0,0,0,0,0,0],"split_type":[0,0,0,0,0,0,0,0,0,0,0,0,0,0,0,0,0,0,0,0,0,0,0],"sum_hessian":[1.1275253E3,9.889628E2,1.3856241E2,8.408548E2,1.4810802E2,1.3750618E2,1.056238E0,4.9454642E2,3.463084E2,3.1103045E1,1.17004974E2,1.2932639E2,8.179784E0,4.363582E2,5.8188225E1,4.6988697E0,3.4160956E2,1.1213687E1,1.9889359E1,1.0807712E2,8.927856E0,6.674352E0,1.5054315E0],"tree_param":{"num_deleted":"0","num_feature":"11","num_nodes":"23","size_leaf_vector":"1"}},{"base_weights":[1.6031907E-1,2.9948458E-1,-6.721608E-1,8.283061E-1,2.3226747E-1,-6.8269175E-1,1.8028124E-1,1.0428109E0,6.756797E-1,-3.1488515E-2,3.7367916E-1,6.3687935E-3,-6.9295996E-1,-2.771209E-2,4.6642147E-2,5.3581025E-2,2.2875287E-2,3.3505023E-3,3.6410358E-2,1.7825743E-2,-1.2278836E-2,2.4204096E-2,1.09023815E-2,2.045306E-2,-2.7119135E-2,-3.6027588E-2,-2.873914E-2],"categories":[],"categories_nodes":[],"categories_segments":[],"categories_sizes":[],"default_left":[0,0,0,0,0,0,0,0,0,0,0,0,0,0,0,0,0,0,0,0,0,0,0,0,0,0,0],"id":6,"left_children":[1,3,5,7,9,11,13,15,17,19,21,23,25,-1,-1,-1,-1,-1,-1,-1,-1,-1,-1,-1,-1,-1,-1],"loss_changes":[1.5769814E2,4.134456E1,1.8119583E0,3.9457016E0,3.86117E1,1.3657532E0,1.7924643E0,6.5964127E-1,2.473362E0,3.0090548E1,1.1525261E1,8.4570235E-1,4.1209412E-1,0E0,0E0,0E0,0E0,0E0,0E0,0E0,0E0,0E0,0E0,0E0,0E0,0E0,0E0],"parents":[2147483647,0,0,1,1,2,2,3,3,4,4,5,5,6,6,7,7,8,8,9,9,10,10,11,11,12,12],"right_children":[2,4,6,8,10,12,14,16,18,20,22,24,26,-1,-1,-1,-1,-1,-1,-1,-1,-1,-1,-1,-1,-1,-1],"split_conditions":[6.362235E0,5.2279496E0,1.8092346E-1,1.0818449E0,5.383996E0,7.6293945E-4,1.1910006E0,1.4228821E-1,4.5776367E-5,9.494934E-1,1.6714718E7,6.9106116E0,1.0480729E0,-2.771209E-2,4.6642147E-2,5.3581025E-2,2.2875287E-2,3.3505023E-3,3.6410358E-2,1.7825743E-2,-1.2278836E-2,2.4204096E-2,1.09023815E-2,2.045306E-2,-2.7119135E-2,-3.6027588E-2,-2.873914E-2],"split_indices":[0,0,1,7,0,2,7,1,1,9,10,0,7,0,0,0,0,0,0,0,0,0,0,0,0,0,0],"split_type":[0,0,0,0,0,0,0,0,0,0,0,0,0,0,0,0,0,0,0,0,0,0,0,0,0,0,0],"sum_hessian":[1.3598287E3,1.1653392E3,1.9448943E2,1.3078047E2,1.0345588E3,1.9221442E2,2.2750118E0,5.315664E1,7.762383E1,3.6121756E2,6.7334125E2,2.8250742E0,1.8938934E2,1.2179849E0,1.057027E0,5.026699E1,2.8896508E0,6.2570624E0,7.1366776E1,1.2832135E2,2.328962E2,3.9329108E2,2.8005017E2,1.7027897E0,1.1222844E0,1.5147475E2,3.7914608E1],"tree_param":{"num_deleted":"0","num_feature":"11","num_nodes":"27","size_leaf_vector":"1"}},{"base_weights":[8.751702E-2,-6.55365E-1,1.9751103E-1,1.1612515E-1,-6.911675E-1,3.0380177E-1,-3.465955E-1,5.690007E-1,-3.5336518E-1,-7.242676E-1,-3.0118293E-1,4.209747E-1,6.172011E-2,-5.9421563E-1,-1.7005089E-1,1.5835122E-3,4.510769E-2,1.4648328E-2,-3.1700816E-2,-1.8061714E-2,-3.641641E-2,5.4231685E-2,-2.594532E-2,-8.980627E-3,2.7635196E-2,-2.2027718E-3,3.3646844E-2,-3.1132579E-2,6.23062E-4,-1.0882844E-2,1.2517782E-2],"categories":[],"categories_nodes":[],"categories_segments":[],"categories_sizes":[],"default_left":[0,0,0,0,0,0,0,0,0,0,0,0,0,0,0,0,0,0,0,0,0,0,0,0,0,0,0,0,0,0,0],"id":7,"left_children":[1,3,5,7,9,11,13,15,17,19,21,23,25,27,29,-1,-1,-1,-1,-1,-1,-1,-1,-1,-1,-1,-1,-1,-1,-1,-1],"loss_changes":[1.0695379E2,4.7031784E0,6.597067E1,1.7834413E0,1.9744415E0,2.7041573E1,8.10264E0,7.412183E-1,8.537643E-1,8.724213E-2,4.3497305E0,5.089028E1,2.0164774E1,1.3395767E0,2.2203197E0,0E0,0E0,0E0,0E0,0E0,0E0,0E0,0E0,0E0,0E0,0E0,0E0,0E0,0E0,0E0,0E0],"parents":[2147483647,0,0,1,1,2,2,3,3,4,4,5,5,6,6,7,7,8,8,9,9,10,10,11,11,12,12,13,13,14,14],"right_children":[2,4,6,8,10,12,14,16,18,20,22,24,26,28,30,-1,-1,-1,-1,-1,-1,-1,-1,-1,-1,-1,-1,-1,-1,-1,-1],"split_conditions":[4.91333E-3,1.5411377E-3,1.6784668E-2,1.078186E-1,1.0559082E-2,1.0528378E0,5.3745317E0,1.0516046E0,1.5258789E-5,3.1433105E-3,3.274536E-2,1.053772E-1,3.5247803E-3,1.9836426E-4,4.8828125E-4,1.5835122E-3,4.510769E-2,1.4648328E-2,-3.1700816E-2,-1.8061714E-2,-3.641641E-2,5.4231685E-2,-2.594532E-2,-8.980627E-3,2.7635196E-2,-2.2027718E-3,3.3646844E-2,-3.1132579E-2,6.23062E-4,-1.0882844E-2,1.2517782E-2],"split_indices":[5,6,6,1,1,7,0,7,2,6,1,5,2,2,2,0,0,0,0,0,0,0,0,0,0,0,0,0,0,0,0],"split_type":[0,0,0,0,0,0,0,0,0,0,0,0,0,0,0,0,0,0,0,0,0,0,0,0,0,0,0,0,0,0,0],"sum_hessian":[1.3076105E3,1.6832065E2,1.1392898E3,7.415075E0,1.6090556E2,9.5328687E2,1.8600294E2,3.720379E0,3.6946955E0,1.4792203E2,1.2983539E1,6.42118E2,3.111689E2,7.692526E1,1.0907768E2,1.6334225E0,2.0869565E0,1.1119547E0,2.582741E0,2.13381E0,1.4578822E2,1.4925514E0,1.1490988E1,1.1547161E2,5.2664636E2,2.656587E2,4.5510227E1,7.3468506E1,3.4567554E0,9.819896E1,1.0878719E1],"tree_param":{"num_deleted":"0","num_feature":"11","num_nodes":"31","size_leaf_vector":"1"}},{"base_weights":[-3.0746824E-1,-5.4542446E-1,1.4187946E0,-5.9571195E-1,-2.8876248E-1,-2.6343873E-2,1.4441803E0,-6.012499E-1,-1.1628302E-1,1.20910846E-1,-4.8335654E-1,7.282641E-2,1.5106802E-2,-3.327526E-2,-2.8386518E-2,1.0460293E-2,-2.989108E-2,-7.892949E-3,3.8897038E-2,-2.7301818E-2,-3.3612947E-3],"categories":[],"categories_nodes":[],"categories_segments":[],"categories_sizes":[],"default_left":[0,0,0,0,0,0,0,0,0,0,0,0,0,0,0,0,0,0,0,0,0],"id":8,"left_children":[1,3,5,7,9,-1,11,13,15,17,19,-1,-1,-1,-1,-1,-1,-1,-1,-1,-1],"loss_changes":[4.62148E2,1.2669922E1,7.1136475E0,2.157837E0,1.3014298E1,0E0,1.6794739E0,1.569397E0,1.6378987E0,9.742118E0,2.8645916E0,0E0,0E0,0E0,0E0,0E0,0E0,0E0,0E0,0E0,0E0],"parents":[2147483647,0,0,1,1,2,2,3,3,4,4,6,6,7,7,8,8,9,9,10,10],"right_children":[2,4,6,8,10,-1,12,14,16,18,20,-1,-1,-1,-1,-1,-1,-1,-1,-1,-1],"split_conditions":[9.766388E-1,1.0314941E-2,2.5177002E-3,1.0851948E0,7.366943E-2,-2.6343873E-2,2.0568848E-2,1.0479723E0,2.746582E-4,9.65271E-2,4.6940613E-1,7.282641E-2,1.5106802E-2,-3.327526E-2,-2.8386518E-2,1.0460293E-2,-2.989108E-2,-7.892949E-3,3.8897038E-2,-2.7301818E-2,-3.3612947E-3],"split_indices":[9,1,2,7,1,0,1,7,1,4,4,0,0,0,0,0,0,0,0,0,0],"split_type":[0,0,0,0,0,0,0,0,0,0,0,0,0,0,0,0,0,0,0,0,0],"sum_hessian":[1.1236218E3,9.878007E2,1.3582109E2,8.254171E2,1.6238358E2,1.6220561E0,1.3419904E2,8.15866E2,9.551107E0,5.2353848E1,1.1002973E2,1.3262738E2,1.5716579E0,2.7646606E2,5.3939996E2,5.8676977E0,3.68341E0,3.702462E1,1.5329227E1,9.549038E1,1.4539355E1],"tree_param":{"num_deleted":"0","num_feature":"11","num_nodes":"21","size_leaf_vector":"1"}},{"base_weights":[1.4645664E-1,2.7900454E-1,-6.5395164E-1,5.277214E-1,1.2842116E-1,-6.883303E-1,8.730328E-2,5.880253E-1,6.7300973E-3,8.3811194E-1,1.1029251E-2,-7.008251E-1,-3.7608457E-1,6.360687E-1,-3.018852E-1,3.690382E-2,1.9943427E-2,1.2902552E-2,-8.430003E-3,4.490121E-2,-1.6016118E-2,-1.6271045E-2,1.0299168E-2,1.59695E-3,-3.5345193E-2,-3.0502623E-2,9.067508E-3,5.197791E-2,-7.941159E-4,9.45136E-3,-2.6583046E-2],"categories":[],"categories_nodes":[],"categories_segments":[],"categories_sizes":[],"default_left":[0,0,0,0,0,0,0,0,0,0,0,0,0,0,0,0,0,0,0,0,0,0,0,0,0,0,0,0,0,0,0],"id":9,"left_children":[1,3,5,7,9,11,13,15,17,19,21,23,25,27,29,-1,-1,-1,-1,-1,-1,-1,-1,-1,-1,-1,-1,-1,-1,-1,-1],"loss_changes":[1.4201514E2,4.2962936E1,4.877136E0,1.35951E1,5.962584E1,5.7762146E-1,1.9913191E0,1.0862091E1,2.0223937E0,7.1941376E0,4.0350895E1,7.874756E-1,1.1085051E0,1.0192205E0,6.741581E-1,0E0,0E0,0E0,0E0,0E0,0E0,0E0,0E0,0E0,0E0,0E0,0E0,0E0,0E0,0E0,0E0],"parents":[2147483647,0,0,1,1,2,2,3,3,4,4,5,5,6,6,7,7,8,8,9,9,10,10,11,11,12,12,13,13,14,14],"right_children":[2,4,6,8,10,12,14,16,18,20,22,24,26,28,30,-1,-1,-1,-1,-1,-1,-1,-1,-1,-1,-1,-1,-1,-1,-1,-1],"split_conditions":[6.362235E0,9.494934E-1,6.496887E-1,5.537523E0,1.026001E-1,1.5377808E-1,6.6432614E0,9.461212E-1,1.12091064E-1,5.950928E-4,5.3850203E0,2.8993225E-1,1.071167E-2,7.651367E-1,4.6279907E-2,3.690382E-2,1.9943427E-2,1.2902552E-2,-8.430003E-3,4.490121E-2,-1.6016118E-2,-1.6271045E-2,1.0299168E-2,1.59695E-3,-3.5345193E-2,-3.0502623E-2,9.067508E-3,5.197791E-2,-7.941159E-4,9.45136E-3,-2.6583046E-2],"split_indices":[0,9,3,0,5,1,0,9,4,2,0,3,5,3,5,0,0,0,0,0,0,0,0,0,0,0,0,0,0,0,0],"split_type":[0,0,0,0,0,0,0,0,0,0,0,0,0,0,0,0,0,0,0,0,0,0,0,0,0,0,0,0,0,0,0],"sum_hessian":[1.3372382E3,1.1475322E3,1.8970602E2,4.3228302E2,7.152492E2,1.8133174E2,8.374285E0,3.873801E2,4.490291E1,1.0108312E2,6.141661E2,1.7375648E2,7.5752473E0,3.3431654E0,5.0311193E0,2.152105E2,1.721696E2,1.8355686E1,2.6547222E1,9.621923E1,4.863894E0,2.2519385E2,3.889722E2,1.4120506E0,1.7234444E2,5.3024807E0,2.2727668E0,1.8814667E0,1.4616985E0,1.6323336E0,3.3987856E0],"tree_param":{"num_deleted":"0","num_feature":"11","num_nodes":"31","size_leaf_vector":"1"}},{"base_weights":[8.4755525E-2,2.0124531E-1,-6.0409313E-1,4.4051296E-1,-7.3236965E-2,-4.2385274E-1,-7.1086687E-1,7.0489985E-1,1.7863171E-1,-4.8420554E-1,5.0248533E-2,-5.578558E-1,3.7294868E-3,-3.581049E-2,-4.2005614E-3,-2.8955847E-2,3.7250485E-2,-7.920718E-3,1.1873882E-2,1.170607E-3,-2.5907189E-2,3.6445122E-2,-4.4469695E-4,-3.216134E-2,-9.8066535E-3,3.6780596E-2,-2.1436697E-2],"categories":[],"categories_nodes":[],"categories_segments":[],"categories_sizes":[],"default_left":[0,0,0,0,0,0,0,0,0,0,0,0,0,0,0,0,0,0,0,0,0,0,0,0,0,0,0],"id":10,"left_children":[1,3,5,7,9,11,13,15,17,19,21,23,25,-1,-1,-1,-1,-1,-1,-1,-1,-1,-1,-1,-1,-1,-1],"loss_changes":[1.0527666E2,7.369765E1,3.50177E0,4.1443787E1,2.6550472E1,4.1173897E0,3.666153E-1,1.5570633E1,6.005373E0,2.0883923E0,1.6161095E1,1.6261711E0,5.740741E0,0E0,0E0,0E0,0E0,0E0,0E0,0E0,0E0,0E0,0E0,0E0,0E0,0E0,0E0],"parents":[2147483647,0,0,1,1,2,2,3,3,4,4,5,5,6,6,7,7,8,8,9,9,10,10,11,11,12,12],"right_children":[2,4,6,8,10,12,14,16,18,20,22,24,26,-1,-1,-1,-1,-1,-1,-1,-1,-1,-1,-1,-1,-1,-1],"split_conditions":[9.579773E-1,2.478062E-1,7.9770975E0,5.411448E0,5.30746E0,5.9122815E0,5.859375E-3,9.446716E-2,1.053772E-1,2.5381437E-1,4.0740967E-3,9.939575E-2,7.702203E0,-3.581049E-2,-4.2005614E-3,-2.8955847E-2,3.7250485E-2,-7.920718E-3,1.1873882E-2,1.170607E-3,-2.5907189E-2,3.6445122E-2,-4.4469695E-4,-3.216134E-2,-9.8066535E-3,3.6780596E-2,-2.1436697E-2],"split_indices":[9,8,0,0,0,0,5,5,5,8,6,5,0,0,0,0,0,0,0,0,0,0,0,0,0,0,0],"split_type":[0,0,0,0,0,0,0,0,0,0,0,0,0,0,0,0,0,0,0,0,0,0,0,0,0,0,0],"sum_hessian":[1.310702E3,1.1214156E3,1.8928638E2,5.9897955E2,5.224361E2,7.134189E1,1.1794449E2,2.9764297E2,3.013366E2,1.20371284E2,4.0206482E2,5.420261E1,1.7139278E1,1.1687703E2,1.0674561E0,8.812547E0,2.888304E2,4.4665337E1,2.5667126E2,7.55314E0,1.12818146E2,3.1776014E1,3.7028882E2,4.353799E1,1.0664621E1,6.2357216E0,1.0903556E1],"tree_param":{"num_deleted":"0","num_feature":"11","num_nodes":"27","size_leaf_vector":"1"}},{"base_weights":[-2.9878896E-1,-5.5899143E-1,1.3245221E0,-5.844767E-1,3.0150594E-2,4.469984E-1,6.8373136E-2,-6.02295E-1,-3.4061313E-1,-3.1481364E-1,2.4340463E-1,9.148343E-1,-1.5798195E-1,-2.8350193E-2,-3.270713E-2,1.6543588E-2,-2.1210117E-2,5.7131023E-4,-3.1590838E-2,4.1148122E-2,-2.362464E-3,6.673961E-2,1.0634116E-2,-2.859733E-2,2.5559384E-2],"categories":[],"categories_nodes":[],"categories_segments":[],"categories_sizes":[],"default_left":[0,0,0,0,0,0,0,0,0,0,0,0,0,0,0,0,0,0,0,0,0,0,0,0,0],"id":11,"left_children":[1,3,5,7,9,11,-1,13,15,17,19,21,23,-1,-1,-1,-1,-1,-1,-1,-1,-1,-1,-1,-1],"loss_changes":[4.7221063E2,1.446933E1,5.514984E0,3.908905E0,3.0110953E0,2.3220654E0,0E0,1.3875732E0,3.6631165E0,1.6227177E0,4.2735753E0,1.2015574E0,1.22453E0,0E0,0E0,0E0,0E0,0E0,0E0,0E0,0E0,0E0,0E0,0E0,0E0],"parents":[2147483647,0,0,1,1,2,2,3,3,4,4,5,5,7,7,8,8,9,9,10,10,11,11,12,12],"right_children":[2,4,6,8,10,12,-1,14,16,18,20,22,24,-1,-1,-1,-1,-1,-1,-1,-1,-1,-1,-1,-1],"split_conditions":[7.1537185E0,2.218628E-2,7.702203E0,5.623861E0,1.595459E-1,4.8675537E-3,6.8373136E-2,1.6714718E7,5.704847E0,2.4108887E-2,2.34375E-2,4.215919E6,1.0042155E0,-2.8350193E-2,-3.270713E-2,1.6543588E-2,-2.1210117E-2,5.7131023E-4,-3.1590838E-2,4.1148122E-2,-2.362464E-3,6.673961E-2,1.0634116E-2,-2.859733E-2,2.5559384E-2],"split_indices":[0,6,0,0,5,6,0,10,0,6,6,10,8,0,0,0,0,0,0,0,0,0,0,0,0],"split_type":[0,0,0,0,0,0,0,0,0,0,0,0,0,0,0,0,0,0,0,0,0,0,0,0,0],"sum_hessian":[1.1165741E3,9.6260486E2,1.5396924E2,9.226946E2,3.9910267E1,7.4489427E0,1.465203E2,8.591823E2,6.3512276E1,1.5155802E1,2.4754465E1,4.056181E0,3.392762E0,5.14765E2,3.4441733E2,6.867273E0,5.6645004E1,7.7066135E0,7.4491887E0,7.9622326E0,1.6792233E1,2.2562275E0,1.7999533E0,2.1409578E0,1.2518041E0],"tree_param":{"num_deleted":"0","num_feature":"11","num_nodes":"25","size_leaf_vector":"1"}},{"base_weights":[1.5617076E-1,2.741954E-1,-6.3128656E-1,1.522478E-1,5.5877304E-1,-6.448782E-1,1.6666591E-1,7.867932E-1,6.1318144E-2,6.1732405E-1,3.2229465E-2,-6.757906E-1,-4.9372786E-1,-2.7355034E-2,3.4587447E-2,4.1852444E-2,-1.4156853E-2,-1.0697334E-2,1.3341819E-2,4.1689157E-2,2.6920607E-2,2.7716259E-2,-7.423932E-3,-3.8729794E-3,-3.412426E-2,1.7846199E-2,-2.691483E-2],"categories":[],"categories_nodes":[],"categories_segments":[],"categories_sizes":[],"default_left":[0,0,0,0,0,0,0,0,0,0,0,0,0,0,0,0,0,0,0,0,0,0,0,0,0,0,0],"id":12,"left_children":[1,3,5,7,9,11,13,15,17,19,21,23,25,-1,-1,-1,-1,-1,-1,-1,-1,-1,-1,-1,-1,-1,-1],"loss_changes":[1.2653557E2,4.1031273E1,1.9787292E0,4.7820427E1,1.0930038E1,6.4907837E-1,1.4522347E0,5.704628E0,4.10896E1,5.2298126E0,3.4412262E0,5.488281E-1,1.2904968E0,0E0,0E0,0E0,0E0,0E0,0E0,0E0,0E0,0E0,0E0,0E0,0E0,0E0,0E0],"parents":[2147483647,0,0,1,1,2,2,3,3,4,4,5,5,6,6,7,7,8,8,9,9,10,10,11,11,12,12],"right_children":[2,4,6,8,10,12,14,16,18,20,22,24,26,-1,-1,-1,-1,-1,-1,-1,-1,-1,-1,-1,-1,-1,-1],"split_conditions":[6.362235E0,1.0552621E0,7.701111E-2,1.0121155E-1,5.623861E0,6.454468E-3,1.4801025E-3,3.8146973E-4,5.3973484E0,5.1371527E0,5.645752E-4,6.5612793E-4,1.10702515E-1,-2.7355034E-2,3.4587447E-2,4.1852444E-2,-1.4156853E-2,-1.0697334E-2,1.3341819E-2,4.1689157E-2,2.6920607E-2,2.7716259E-2,-7.423932E-3,-3.8729794E-3,-3.412426E-2,1.7846199E-2,-2.691483E-2],"split_indices":[0,7,5,5,0,2,2,2,0,0,2,2,4,0,0,0,0,0,0,0,0,0,0,0,0,0,0],"split_type":[0,0,0,0,0,0,0,0,0,0,0,0,0,0,0,0,0,0,0,0,0,0,0,0,0,0,0],"sum_hessian":[1.3600541E3,1.1830619E3,1.769922E2,8.2870953E2,3.543523E2,1.7412227E2,2.869934E0,1.03389275E2,7.2532025E2,3.188143E2,3.553799E1,1.4311726E2,3.1005007E1,1.2075274E0,1.6624067E0,9.88548E1,4.5344763E0,3.1004074E2,4.1527954E2,8.3897224E1,2.3491707E2,8.871884E0,2.6666105E1,1.6531237E0,1.4146414E2,1.369132E0,2.9635876E1],"tree_param":{"num_deleted":"0","num_feature":"11","num_nodes":"27","size_leaf_vector":"1"}},{"base_weights":[8.1967674E-2,1.9304018E-1,-5.901509E-1,-7.985225E-2,3.9929113E-1,-6.804469E-1,-2.543324E-1,-1.6832073E-1,5.567411E-1,1.7282762E-1,5.664761E-1,-6.972685E-1,3.5300385E-2,3.1505314E-1,-4.6575132E-1,-2.9488018E-4,-2.2835921E-2,3.6654115E-2,-5.999506E-3,3.1468526E-2,2.3746388E-3,3.673669E-2,1.5768027E-2,3.0452714E-3,-3.52966E-2,-8.558952E-3,3.3398446E-2,-2.0557227E-2,-3.3899322E-2],"categories":[],"categories_nodes":[],"categories_segments":[],"categories_sizes":[],"default_left":[0,0,0,0,0,0,0,0,0,0,0,0,0,0,0,0,0,0,0,0,0,0,0,0,0,0,0,0,0],"id":13,"left_children":[1,3,5,7,9,11,13,15,17,19,21,23,-1,25,27,-1,-1,-1,-1,-1,-1,-1,-1,-1,-1,-1,-1,-1,-1],"loss_changes":[9.837487E1,6.3650127E1,5.5808105E0,2.7478758E1,2.4333694E1,3.6743927E0,4.9370623E0,2.0048988E1,7.150158E0,1.5676695E1,1.5528816E1,9.7711945E-1,0E0,1.9856447E0,2.0442629E-1,0E0,0E0,0E0,0E0,0E0,0E0,0E0,0E0,0E0,0E0,0E0,0E0,0E0,0E0],"parents":[2147483647,0,0,1,1,2,2,3,3,4,4,5,5,6,6,7,7,8,8,9,9,10,10,11,11,13,13,14,14],"right_children":[2,4,6,8,10,12,14,16,18,20,22,24,-1,26,28,-1,-1,-1,-1,-1,-1,-1,-1,-1,-1,-1,-1,-1,-1],"split_conditions":[9.581909E-1,9.501953E-1,5.264282E-3,4.3640137E-3,1.6777216E7,7.1258545E-3,8.421936E-1,1.0598872E0,2.7005005E-1,1.0070801E-2,1.4556885E-2,3.4028625E-1,3.5300385E-2,1.02392E0,1.58844E-2,-2.9488018E-4,-2.2835921E-2,3.6654115E-2,-5.999506E-3,3.1468526E-2,2.3746388E-3,3.673669E-2,1.5768027E-2,3.0452714E-3,-3.52966E-2,-8.558952E-3,3.3398446E-2,-2.0557227E-2,-3.3899322E-2],"split_indices":[9,9,6,2,10,2,3,7,1,6,6,3,0,7,6,0,0,0,0,0,0,0,0,0,0,0,0,0,0],"split_type":[0,0,0,0,0,0,0,0,0,0,0,0,0,0,0,0,0,0,0,0,0,0,0,0,0,0,0,0,0],"sum_hessian":[1.3164832E3,1.1300847E3,1.8639836E2,4.8658557E2,6.434992E2,1.4649513E2,3.9903217E1,4.2753772E2,5.904786E1,2.7373E2,3.697692E2,1.4498462E2,1.510524E0,1.0738256E1,2.916496E1,2.738295E2,1.5370822E2,4.680887E1,1.2238991E1,5.8527573E1,2.1520244E2,2.2083665E2,1.4893253E2,1.6039321E0,1.4338068E2,4.624415E0,6.113842E0,2.4364685E1,4.8002763E0],"tree_param":{"num_deleted":"0","num_feature":"11","num_nodes":"29","size_leaf_vector":"1"}},{"base_weights":[-2.9333347E-1,-5.3150105E-1,1.2314038E0,-2.3205853E-1,-5.956129E-1,1.2495166E0,-2.5063708E-2,1.1293603E-1,-4.3327248E-1,-6.430826E-1,-5.721258E-1,6.293883E-2,1.4609729E-2,2.8779123E-2,-6.027717E-3,1.7764606E-2,-2.368227E-2,-1.7199254E-2,-3.2482218E-2,-2.6105046E-2,-3.054185E-2],"categories":[],"categories_nodes":[],"categories_segments":[],"categories_sizes":[],"default_left":[0,0,0,0,0,0,0,0,0,0,0,0,0,0,0,0,0,0,0,0,0],"id":14,"left_children":[1,3,5,7,9,11,-1,13,15,17,19,-1,-1,-1,-1,-1,-1,-1,-1,-1,-1],"loss_changes":[3.9986047E2,1.8205658E1,4.9826965E0,1.173438E1,6.8984985E-1,1.1226654E0,0E0,6.7902994E0,3.4795017E0,3.8948822E-1,8.646698E-1,0E0,0E0,0E0,0E0,0E0,0E0,0E0,0E0,0E0,0E0],"parents":[2147483647,0,0,1,1,2,2,3,3,4,4,5,5,7,7,8,8,9,9,10,10],"right_children":[2,4,6,8,10,12,-1,14,16,18,20,-1,-1,-1,-1,-1,-1,-1,-1,-1,-1],"split_conditions":[9.766388E-1,9.649048E-1,5.0154114E-1,7.417297E-2,1.0479723E0,2.0568848E-2,-2.5063708E-2,7.382202E-2,1.7631531E-1,1.0390171E0,1.2011719E-1,6.293883E-2,1.4609729E-2,2.8779123E-2,-6.027717E-3,1.7764606E-2,-2.368227E-2,-1.7199254E-2,-3.2482218E-2,-2.6105046E-2,-3.054185E-2],"split_indices":[9,3,3,1,7,1,0,5,3,7,5,0,0,0,0,0,0,0,0,0,0],"split_type":[0,0,0,0,0,0,0,0,0,0,0,0,0,0,0,0,0,0,0,0,0],"sum_hessian":[1.099709E3,9.5142053E2,1.4828845E2,1.681877E2,7.8323285E2,1.4689232E2,1.3961321E0,6.2038303E1,1.0614939E2,2.5488824E2,5.283446E2,1.4532915E2,1.5631782E0,2.0562483E1,4.147582E1,4.979991E0,1.01169395E2,6.0452385E0,2.4884302E2,2.3365092E2,2.9469366E2],"tree_param":{"num_deleted":"0","num_feature":"11","num_nodes":"21","size_leaf_vector":"1"}},{"base_weights":[1.5182891E-1,2.7284986E-1,-4.555952E-1,6.546884E-1,1.752166E-1,-6.516131E-1,-1.0236959E-1,4.835715E-1,7.590613E-1,7.590018E-1,8.602775E-2,2.3661299E-2,-6.623345E-1,4.608867E-2,-1.8726066E-1,4.9648196E-2,2.1004936E-2,3.9688643E-2,8.845574E-3,4.8815727E-2,3.0987933E-2,-2.0245237E-2,9.944198E-3,-3.348133E-2,4.460509E-3,-1.5284534E-2,1.612817E-2],"categories":[],"categories_nodes":[],"categories_segments":[],"categories_sizes":[],"default_left":[0,0,0,0,0,0,0,0,0,0,0,0,0,0,0,0,0,0,0,0,0,0,0,0,0,0,0],"id":15,"left_children":[1,3,5,7,9,11,13,15,17,19,21,-1,23,-1,25,-1,-1,-1,-1,-1,-1,-1,-1,-1,-1,-1,-1],"loss_changes":[9.788423E1,4.1321587E1,1.5286816E1,3.849823E0,4.602668E1,1.8717003E0,7.0033293E0,2.6023235E0,2.7465897E0,3.2430496E0,4.2587852E1,0E0,8.0298996E-1,0E0,4.5104256E0,0E0,0E0,0E0,0E0,0E0,0E0,0E0,0E0,0E0,0E0,0E0,0E0],"parents":[2147483647,0,0,1,1,2,2,3,3,4,4,5,5,6,6,7,7,8,8,9,9,10,10,12,12,14,14],"right_children":[2,4,6,8,10,12,14,16,18,20,22,-1,24,-1,26,-1,-1,-1,-1,-1,-1,-1,-1,-1,-1,-1,-1],"split_conditions":[6.5612793E-4,9.46228E-1,1.0498694E0,1.0607964E0,1.0328674E-1,3.2073975E-2,2.2888184E-3,1.1276245E-2,3.429718E-1,7.12738E-2,1.1779785E-2,2.3661299E-2,2.9039E-1,4.608867E-2,1.3412476E-2,4.9648196E-2,2.1004936E-2,3.9688643E-2,8.845574E-3,4.8815727E-2,3.0987933E-2,-2.0245237E-2,9.944198E-3,-3.348133E-2,4.460509E-3,-1.5284534E-2,1.612817E-2],"split_indices":[2,9,7,7,5,4,5,6,4,5,6,0,4,0,6,0,0,0,0,0,0,0,0,0,0,0,0],"split_type":[0,0,0,0,0,0,0,0,0,0,0,0,0,0,0,0,0,0,0,0,0,0,0,0,0,0,0],"sum_hessian":[1.3302128E3,1.1094462E3,2.2076654E2,2.2533192E2,8.8411426E2,1.4170619E2,7.9060356E1,8.6437E1,1.3889493E2,1.16673485E2,7.674408E2,1.1342733E0,1.4057191E2,5.674376E0,7.338598E1,8.765855E0,7.767114E1,1.309076E2,7.9873266E0,4.4389812E1,7.228367E1,1.4320312E2,6.242377E2,1.3927505E2,1.2968578E0,5.97147E1,1.3671278E1],"tree_param":{"num_deleted":"0","num_feature":"11","num_nodes":"27","size_leaf_vector":"1"}},{"base_weights":[7.890768E-2,2.338736E-1,-3.33677E-1,6.729981E-2,4.609173E-1,-5.153303E-1,5.4491526E-1,2.6915032E-1,-7.88577E-2,6.409659E-1,1.895484E-1,-6.1922926E-1,-2.5291443E-1,7.205196E-1,-6.972533E-2,1.938471E-2,-5.189472E-3,-7.6220282E-3,3.0514544E-3,-2.8449714E-2,3.5833683E-2,1.3690675E-2,-1.9855259E-2,-3.662092E-3,-3.1586822E-2,-2.01174E-2,3.198356E-3,-2.3795839E-4,4.2662732E-2,3.5950508E-2,-9.567674E-3],"categories":[],"categories_nodes":[],"categories_segments":[],"categories_sizes":[],"default_left":[0,0,0,0,0,0,0,0,0,0,0,0,0,0,0,0,0,0,0,0,0,0,0,0,0,0,0,0,0,0,0],"id":16,"left_children":[1,3,5,7,9,11,13,15,17,19,21,23,25,27,29,-1,-1,-1,-1,-1,-1,-1,-1,-1,-1,-1,-1,-1,-1,-1,-1],"loss_changes":[8.424462E1,3.6204586E1,5.7565624E1,1.6325333E1,1.9737381E1,8.058014E0,6.705082E0,1.029295E1,3.3102186E0,2.2498138E1,8.078875E0,1.4343414E0,4.0609035E0,4.6404E0,1.4318664E0,0E0,0E0,0E0,0E0,0E0,0E0,0E0,0E0,0E0,0E0,0E0,0E0,0E0,0E0,0E0,0E0],"parents":[2147483647,0,0,1,1,2,2,3,3,4,4,5,5,6,6,7,7,8,8,9,9,10,10,11,11,12,12,13,13,14,14],"right_children":[2,4,6,8,10,12,14,16,18,20,22,24,26,28,30,-1,-1,-1,-1,-1,-1,-1,-1,-1,-1,-1,-1,-1,-1,-1,-1],"split_conditions":[4.5776367E-5,1.6777216E7,6.6375732E-3,5.3878555E0,5.4283223E0,6.451416E-2,6.4697266E-3,1.4205933E-2,4.215919E6,5.242957E0,9.806824E-1,2.5482178E-3,5.373636E0,7.417297E-2,2.5283813E-2,1.938471E-2,-5.189472E-3,-7.6220282E-3,3.0514544E-3,-2.8449714E-2,3.5833683E-2,1.3690675E-2,-1.9855259E-2,-3.662092E-3,-3.1586822E-2,-2.01174E-2,3.198356E-3,-2.3795839E-4,4.2662732E-2,3.5950508E-2,-9.567674E-3],"split_indices":[1,10,2,0,0,1,6,6,10,0,3,6,0,1,1,0,0,0,0,0,0,0,0,0,0,0,0,0,0,0,0],"split_type":[0,0,0,0,0,0,0,0,0,0,0,0,0,0,0,0,0,0,0,0,0,0,0,0,0,0,0,0,0,0,0],"sum_hessian":[1.3165178E3,9.5720886E2,3.5930902E2,5.5250446E2,4.047044E2,2.9791943E2,6.1389587E1,2.3186586E2,3.206386E2,2.4287804E2,1.6182635E2,2.1293263E2,8.498681E1,4.7680904E1,1.3708684E1,1.7592574E2,5.594013E1,2.1008525E2,1.10553345E2,1.4110259E1,2.2876778E2,1.4173466E2,2.0091698E1,4.845254E0,2.0808737E2,5.7660618E1,2.7326189E1,7.4508276E0,4.0230076E1,1.5034332E0,1.2205251E1],"tree_param":{"num_deleted":"0","num_feature":"11","num_nodes":"31","size_leaf_vector":"1"}},{"base_weights":[-2.727592E-1,-5.306412E-1,1.1577809E0,-5.6922126E-1,-2.5424758E-1,1.1725144E0,-2.4747737E-2,-5.7121706E-1,2.0751052E-2,1.587961E-1,-3.6305916E-1,5.9457E-2,4.861918E-1,-3.1827062E-2,-2.6982084E-2,2.95178E-2,-2.3038328E-2,2.36848E-2,-1.9686632E-2,5.989425E-4,4.9183954E-2],"categories":[],"categories_nodes":[],"categories_segments":[],"categories_sizes":[],"default_left":[0,0,0,0,0,0,0,0,0,0,0,0,0,0,0,0,0,0,0,0,0],"id":17,"left_children":[1,3,5,7,9,11,-1,13,-1,15,17,-1,19,-1,-1,-1,-1,-1,-1,-1,-1],"loss_changes":[3.9636542E2,9.630737E0,4.286865E0,1.6862793E0,5.0787716E0,1.5689087E0,0E0,1.4715271E0,0E0,6.493235E0,2.3797216E0,0E0,1.1021868E0,0E0,0E0,0E0,0E0,0E0,0E0,0E0,0E0],"parents":[2147483647,0,0,1,1,2,2,3,3,4,4,5,5,7,7,9,9,10,10,12,12],"right_children":[2,4,6,8,10,12,-1,14,-1,16,18,-1,20,-1,-1,-1,-1,-1,-1,-1,-1],"split_conditions":[7.1537185E0,1.0851948E0,1.0818449E0,3.92807E-1,5.822754E-2,2.9159546E-2,-2.4747737E-2,1.0479723E0,2.0751052E-2,5.9713423E-1,1.7631531E-1,5.9457E-2,5.9713423E-1,-3.1827062E-2,-2.6982084E-2,2.95178E-2,-2.3038328E-2,2.36848E-2,-1.9686632E-2,5.989425E-4,4.9183954E-2],"split_indices":[0,7,7,4,4,5,0,7,0,8,3,0,8,0,0,0,0,0,0,0,0],"split_type":[0,0,0,0,0,0,0,0,0,0,0,0,0,0,0,0,0,0,0,0,0],"sum_hessian":[1.0730886E3,9.0945636E2,1.6363225E2,7.975954E2,1.1186098E2,1.6233043E2,1.3018339E0,7.9619073E2,1.4046537E0,2.3276144E1,8.858483E1,1.5813348E2,4.1969414E0,2.5632242E2,5.398683E2,1.373354E1,9.542604E0,2.8771155E0,8.570772E1,2.4108856E0,1.786056E0],"tree_param":{"num_deleted":"0","num_feature":"11","num_nodes":"21","size_leaf_vector":"1"}},{"base_weights":[1.4651966E-1,2.5629723E-1,-6.054459E-1,7.218107E-1,2.0489775E-1,-6.3864374E-1,-3.316884E-1,8.283571E-1,3.5879144E-1,-4.0559247E-2,3.3729815E-1,-6.4719385E-1,-2.6033667E-1,-6.224691E-1,-9.567961E-2,2.210938E-2,4.4827726E-2,3.19505E-3,3.3936817E-2,-1.3617426E-2,1.8534146E-2,2.569604E-2,1.1690128E-2,-1.0144244E-2,-3.267512E-2,-2.9315168E-2,4.6778056E-3,-3.403017E-2,-6.3204104E-3,1.15238745E-2,-2.8680122E-2],"categories":[],"categories_nodes":[],"categories_segments":[],"categories_sizes":[],"default_left":[0,0,0,0,0,0,0,0,0,0,0,0,0,0,0,0,0,0,0,0,0,0,0,0,0,0,0,0,0,0,0],"id":18,"left_children":[1,3,5,7,9,11,13,15,17,19,21,23,25,27,29,-1,-1,-1,-1,-1,-1,-1,-1,-1,-1,-1,-1,-1,-1,-1,-1],"loss_changes":[1.1159143E2,2.813961E1,1.459404E0,4.378727E0,3.4539627E1,4.1086578E-1,1.319982E0,2.1748772E0,2.5673661E0,3.5584114E1,1.255867E1,3.5233307E-1,5.1417965E-1,2.084732E-1,1.8504909E0,0E0,0E0,0E0,0E0,0E0,0E0,0E0,0E0,0E0,0E0,0E0,0E0,0E0,0E0,0E0,0E0],"parents":[2147483647,0,0,1,1,2,2,3,3,4,4,5,5,6,6,7,7,8,8,9,9,10,10,11,11,12,12,13,13,14,14],"right_children":[2,4,6,8,10,12,14,16,18,20,22,24,26,28,30,-1,-1,-1,-1,-1,-1,-1,-1,-1,-1,-1,-1,-1,-1,-1,-1],"split_conditions":[6.362235E0,5.192094E0,6.1035156E-3,2.1438599E-2,5.383083E0,1.1803609E0,1.0498694E0,6.806793E-1,2.34375E-2,1.23931885E-1,4.215919E6,9.854126E-2,9.292603E-3,2.9039E-1,2.9720576E7,2.210938E-2,4.4827726E-2,3.19505E-3,3.3936817E-2,-1.3617426E-2,1.8534146E-2,2.569604E-2,1.1690128E-2,-1.0144244E-2,-3.267512E-2,-2.9315168E-2,4.6778056E-3,-3.403017E-2,-6.3204104E-3,1.15238745E-2,-2.8680122E-2],"split_indices":[0,0,6,6,0,7,7,9,6,5,10,4,5,4,10,0,0,0,0,0,0,0,0,0,0,0,0,0,0,0,0],"split_type":[0,0,0,0,0,0,0,0,0,0,0,0,0,0,0,0,0,0,0,0,0,0,0,0,0,0,0,0,0,0,0],"sum_hessian":[1.3503812E3,1.1786437E3,1.7173766E2,1.1655055E2,1.062093E3,1.5256953E2,1.9168125E1,8.960924E1,2.6941313E1,3.722766E2,6.8981647E2,1.4885E2,3.7195299E0,8.22077E0,1.0947355E1,1.4011392E1,7.559785E1,1.43317375E1,1.2609575E1,2.3819254E2,1.3408408E2,2.5413466E2,4.3568182E2,2.3159902E0,1.4653401E2,1.7652316E0,1.9542983E0,7.191928E0,1.028842E0,6.6606727E0,4.286682E0],"tree_param":{"num_deleted":"0","num_feature":"11","num_nodes":"31","size_leaf_vector":"1"}},{"base_weights":[9.003219E-2,-5.8104604E-1,1.7861503E-1,-6.4424926E-1,2.0495676E-1,3.0288482E-1,-1.3819109E-1,3.0480077E-2,-6.66442E-1,7.5529826E-1,-2.8985775E-1,-2.6378283E-2,3.960182E-1,-4.8944187E-1,-2.935674E-2,-9.270219E-3,-3.3739854E-2,-6.476777E-3,4.9044453E-2,1.7172752E-2,-3.302289E-2,-1.3938181E-2,2.6788304E-2,7.691936E-3,2.7749375E-2,-6.4162943E-3,-2.736099E-2,-8.876142E-3,8.98922E-3],"categories":[],"categories_nodes":[],"categories_segments":[],"categories_sizes":[],"default_left":[0,0,0,0,0,0,0,0,0,0,0,0,0,0,0,0,0,0,0,0,0,0,0,0,0,0,0,0,0],"id":19,"left_children":[1,3,5,7,9,11,13,-1,15,17,19,21,23,25,27,-1,-1,-1,-1,-1,-1,-1,-1,-1,-1,-1,-1,-1,-1],"loss_changes":[7.7515755E1,7.620514E0,4.535587E1,4.1230965E0,3.2948334E0,2.537313E1,1.2408445E1,0E0,4.9474335E-1,1.1966348E0,1.6438648E0,2.6019342E1,2.478469E1,1.5671806E0,7.715831E0,0E0,0E0,0E0,0E0,0E0,0E0,0E0,0E0,0E0,0E0,0E0,0E0,0E0,0E0],"parents":[2147483647,0,0,1,1,2,2,3,3,4,4,5,5,6,6,8,8,9,9,10,10,11,11,12,12,13,13,14,14],"right_children":[2,4,6,8,10,12,14,-1,16,18,20,22,24,26,28,-1,-1,-1,-1,-1,-1,-1,-1,-1,-1,-1,-1,-1,-1],"split_conditions":[4.91333E-3,6.454468E-3,1.54418945E-2,5.1808167E-1,4.6940613E-1,1.0458374E-1,5.3656387E0,3.0480077E-2,7.171631E-4,5.825082E0,1.3931274E-2,4.058838E-3,9.5202637E-1,3.0517578E-5,9.5262146E-1,-9.270219E-3,-3.3739854E-2,-6.476777E-3,4.9044453E-2,1.7172752E-2,-3.302289E-2,-1.3938181E-2,2.6788304E-2,7.691936E-3,2.7749375E-2,-6.4162943E-3,-2.736099E-2,-8.876142E-3,8.98922E-3],"split_indices":[5,2,6,9,4,5,0,0,6,0,2,2,9,4,9,0,0,0,0,0,0,0,0,0,0,0,0,0,0],"split_type":[0,0,0,0,0,0,0,0,0,0,0,0,0,0,0,0,0,0,0,0,0,0,0,0,0,0,0,0,0],"sum_hessian":[1.302596E3,1.5156947E2,1.1510265E3,1.403722E2,1.1197285E1,8.2674927E2,3.242772E2,2.2111633E0,1.3816103E2,5.1765833E0,6.0207014E0,1.8236734E2,6.4438196E2,7.6295E1,2.4798218E2,2.5566978E0,1.3560432E2,1.094912E0,4.081671E0,2.2360954E0,3.7846057E0,1.2603403E2,5.6333305E1,2.5574889E2,3.8863306E2,1.0745485E1,6.5549515E1,1.451946E2,1.02787575E2],"tree_param":{"num_deleted":"0","num_feature":"11","num_nodes":"29","size_leaf_vector":"1"}},{"base_weights":[-2.5366345E-1,-5.195263E-1,1.1023871E0,-5.604493E-1,-2.6405218E-1,6.1009276E-1,1.1313245E0,-5.664538E-1,2.9760587E-1,-3.9098522E-1,1.03877805E-1,-2.8629621E-2,9.0079117E-1,5.7097483E-2,7.4806124E-1,-2.6006842E-2,-3.1627856E-2,6.1216384E-2,-2.8947238E-2,-2.211708E-2,1.46877E-3,2.4988858E-2,-1.20673785E-2,6.616531E-2,1.1881713E-2,5.7004053E-2,1.1802993E-3],"categories":[],"categories_nodes":[],"categories_segments":[],"categories_sizes":[],"default_left":[0,0,0,0,0,0,0,0,0,0,0,0,0,0,0,0,0,0,0,0,0,0,0,0,0,0,0],"id":20,"left_children":[1,3,5,7,9,11,13,15,17,19,21,-1,23,-1,25,-1,-1,-1,-1,-1,-1,-1,-1,-1,-1,-1,-1],"loss_changes":[3.8765698E2,9.321518E0,2.1662292E0,4.072891E0,5.859273E0,3.9958057E0,2.485199E-1,2.1897888E0,4.990757E0,2.0155115E0,4.497321E0,0E0,2.3424973E0,0E0,1.6692762E0,0E0,0E0,0E0,0E0,0E0,0E0,0E0,0E0,0E0,0E0,0E0,0E0],"parents":[2147483647,0,0,1,1,2,2,3,3,4,4,5,5,6,6,7,7,8,8,9,9,10,10,12,12,14,14],"right_children":[2,4,6,8,10,12,14,16,18,20,22,-1,24,-1,26,-1,-1,-1,-1,-1,-1,-1,-1,-1,-1,-1,-1],"split_conditions":[7.1537185E0,1.0714449E0,7.702203E0,6.6432614E0,2.1438599E-2,1.0445982E0,5.264282E-3,1.6714718E7,1.1444092E-3,1.1696461E1,1.1246182E0,-2.8629621E-2,3.4484863E-3,5.7097483E-2,3.6621094E-3,-2.6006842E-2,-3.1627856E-2,6.1216384E-2,-2.8947238E-2,-2.211708E-2,1.46877E-3,2.4988858E-2,-1.20673785E-2,6.616531E-2,1.1881713E-2,5.7004053E-2,1.1802993E-3],"split_indices":[0,7,0,0,6,7,6,10,2,8,7,0,2,0,2,0,0,0,0,0,0,0,0,0,0,0,0],"split_type":[0,0,0,0,0,0,0,0,0,0,0,0,0,0,0,0,0,0,0,0,0,0,0,0,0,0,0],"sum_hessian":[1.0739673E3,8.981813E2,1.7578604E2,7.736565E2,1.24524796E2,1.0372198E1,1.6541385E2,7.68449E2,5.2075496E0,9.256072E1,3.1964077E1,1.9507713E0,8.421427E0,1.5998875E2,5.4250956E0,4.5445645E2,3.1399252E2,2.4349024E0,2.7726471E0,8.246023E1,1.0100488E1,1.4785008E1,1.717907E1,4.8400006E0,3.5814261E0,3.3340878E0,2.0910077E0],"tree_param":{"num_deleted":"0","num_feature":"11","num_nodes":"27","size_leaf_vector":"1"}},{"base_weights":[1.4819342E-1,2.5782752E-1,-5.7025355E-1,9.670211E-2,4.345808E-1,-5.9818095E-1,1.8249528E-1,2.1913733E-2,8.6827236E-1,7.14812E-1,3.570054E-1,-9.867045E-2,-6.190889E-1,4.5654092E-2,-1.4769253E-1,-1.4763193E-2,1.2005501E-2,3.841272E-3,4.6641856E-2,4.029453E-2,2.1239566E-2,1.0937511E-2,2.3653915E-2,3.3259165E-2,-2.3484983E-2,1.1438659E-2,-3.126576E-2,1.5681785E-2,-1.8362664E-2],"categories":[],"categories_nodes":[],"categories_segments":[],"categories_sizes":[],"default_left":[0,0,0,0,0,0,0,0,0,0,0,0,0,0,0,0,0,0,0,0,0,0,0,0,0,0,0,0,0],"id":21,"left_children":[1,3,5,7,9,11,13,15,17,19,21,23,25,-1,27,-1,-1,-1,-1,-1,-1,-1,-1,-1,-1,-1,-1,-1,-1],"loss_changes":[1.0574769E2,3.3138657E1,3.7919235E0,3.517514E1,1.193972E1,1.7609367E0,1.6940191E0,3.8540276E1,2.7167244E0,2.9946632E0,6.9409943E0,2.2779293E0,9.402008E-1,0E0,5.715764E-1,0E0,0E0,0E0,0E0,0E0,0E0,0E0,0E0,0E0,0E0,0E0,0E0,0E0,0E0],"parents":[2147483647,0,0,1,1,2,2,3,3,4,4,5,5,6,6,7,7,8,8,9,9,10,10,11,11,12,12,14,14],"right_children":[2,4,6,8,10,12,14,16,18,20,22,24,26,-1,28,-1,-1,-1,-1,-1,-1,-1,-1,-1,-1,-1,-1,-1,-1],"split_conditions":[6.261139E0,2.4550967E-1,6.689453E-1,9.579773E-1,5.26513E0,8.6053467E-1,9.400482E-1,5.4005623E0,7.9599E-1,2.1438599E-2,1.4266968E-2,3.0082467E0,2.8993225E-1,4.5654092E-2,7.290039E-1,-1.4763193E-2,1.2005501E-2,3.841272E-3,4.6641856E-2,4.029453E-2,2.1239566E-2,1.0937511E-2,2.3653915E-2,3.3259165E-2,-2.3484983E-2,1.1438659E-2,-3.126576E-2,1.5681785E-2,-1.8362664E-2],"split_indices":[0,8,3,9,0,9,9,0,3,6,6,8,3,0,3,0,0,0,0,0,0,0,0,0,0,0,0,0,0],"split_type":[0,0,0,0,0,0,0,0,0,0,0,0,0,0,0,0,0,0,0,0,0,0,0,0,0,0,0,0,0],"sum_hessian":[1.3411166E3,1.163837E3,1.7727951E2,6.0923865E2,5.5459845E2,1.7103662E2,6.242885E0,5.558721E2,5.3366528E1,1.1935104E2,4.3524744E2,6.986312E0,1.6405031E2,1.6684769E0,4.574408E0,2.2647855E2,3.2939355E2,4.1077614E0,4.9258766E1,9.0150604E1,2.920044E1,1.9930103E2,2.359464E2,2.15445E0,4.8318615E0,1.0656435E0,1.6298466E2,1.4059899E0,3.1684184E0],"tree_param":{"num_deleted":"0","num_feature":"11","num_nodes":"29","size_leaf_vector":"1"}},{"base_weights":[6.924297E-2,1.6789344E-1,-5.5780745E-1,-3.9210882E-2,3.7787807E-1,-5.800058E-1,4.7018338E-2,9.961996E-2,-2.5831735E-1,4.9382323E-1,1.3897514E-1,-6.354524E-1,-2.3928346E-1,1.1501651E-3,2.3312274E-2,-1.4582942E-2,1.3624017E-2,3.0831506E-3,2.6539147E-2,1.1036802E-2,-9.760419E-3,4.550135E-3,-3.216976E-2,-2.2340557E-2,2.1189077E-2],"categories":[],"categories_nodes":[],"categories_segments":[],"categories_sizes":[],"default_left":[0,0,0,0,0,0,0,0,0,0,0,0,0,0,0,0,0,0,0,0,0,0,0,0,0],"id":22,"left_children":[1,3,5,7,9,11,-1,13,15,17,19,21,23,-1,-1,-1,-1,-1,-1,-1,-1,-1,-1,-1,-1],"loss_changes":[8.042033E1,4.8848064E1,6.1506004E0,1.722571E1,1.5413811E1,3.2200317E0,0E0,9.7346115E0,3.926427E0,5.977783E0,5.0195637E0,8.9333725E-1,3.5650892E0,0E0,0E0,0E0,0E0,0E0,0E0,0E0,0E0,0E0,0E0,0E0,0E0],"parents":[2147483647,0,0,1,1,2,2,3,3,4,4,5,5,7,7,8,8,9,9,10,10,11,11,12,12],"right_children":[2,4,6,8,10,12,-1,14,16,18,20,22,24,-1,-1,-1,-1,-1,-1,-1,-1,-1,-1,-1,-1],"split_conditions":[9.579773E-1,9.5173645E-1,1.2176514E-2,1.512146E-2,1.4785767E-2,1.0665894E-2,4.7018338E-2,4.3640137E-3,4.8828125E-4,9.7750854E-1,1.6860962E-2,3.4028625E-1,3.8146973E-4,1.1501651E-3,2.3312274E-2,-1.4582942E-2,1.3624017E-2,3.0831506E-3,2.6539147E-2,1.1036802E-2,-9.760419E-3,4.550135E-3,-3.216976E-2,-2.2340557E-2,2.1189077E-2],"split_indices":[9,9,2,6,6,6,0,2,2,3,6,3,2,0,0,0,0,0,0,0,0,0,0,0,0],"split_type":[0,0,0,0,0,0,0,0,0,0,0,0,0,0,0,0,0,0,0,0,0,0,0,0,0],"sum_hessian":[1.2988057E3,1.1225647E3,1.7624095E2,5.6536316E2,5.5720154E2,1.7396967E2,2.2712731E0,3.462463E2,2.1911687E2,3.7477902E2,1.8242255E2,1.4924944E2,2.4720236E1,2.868354E2,5.941091E1,2.0637866E2,1.2738196E1,2.963216E1,3.4514685E2,1.467007E2,3.572186E1,1.5576334E0,1.476918E2,1.8951744E1,5.7684913E0],"tree_param":{"num_deleted":"0","num_feature":"11","num_nodes":"25","size_leaf_vector":"1"}},{"base_weights":[-2.6790655E-1,-5.150205E-1,1.033192E0,-5.285157E-1,1.7853293E-1,1.0560964E0,6.3547736E-1,-5.479448E-1,-1.142482E-1,-4.5750347E-1,1.0934682E0,1.2837492E-2,1.0636945E0,-1.6414155E-1,9.6184844E-1,-2.7821943E-2,-5.9743538E-3,2.7088022E-3,-2.431754E-2,-3.0068783E-3,-3.0690933E-2,6.5026144E-3,7.497076E-2,5.522681E-2,4.85358E-2,-3.0614683E-2,2.559787E-2,5.555678E-2,1.52372895E-2],"categories":[],"categories_nodes":[],"categories_segments":[],"categories_sizes":[],"default_left":[0,0,0,0,0,0,0,0,0,0,0,0,0,0,0,0,0,0,0,0,0,0,0,0,0,0,0,0,0],"id":23,"left_children":[1,3,5,7,9,11,13,15,17,19,21,-1,23,25,27,-1,-1,-1,-1,-1,-1,-1,-1,-1,-1,-1,-1,-1,-1],"loss_changes":[3.3570114E2,8.256485E0,1.1828461E0,6.894577E0,1.0209669E1,8.1611633E-1,2.7753553E0,2.95755E0,2.4686368E0,6.305511E-1,2.7050915E0,0E0,5.3329468E-2,1.19356E0,5.5761766E-1,0E0,0E0,0E0,0E0,0E0,0E0,0E0,0E0,0E0,0E0,0E0,0E0,0E0,0E0],"parents":[2147483647,0,0,1,1,2,2,3,3,4,4,5,5,6,6,7,7,8,8,9,9,10,10,12,12,13,13,14,14],"right_children":[2,4,6,8,10,12,14,16,18,20,22,-1,24,26,28,-1,-1,-1,-1,-1,-1,-1,-1,-1,-1,-1,-1,-1,-1],"split_conditions":[7.1537185E0,4.6940613E-1,1.3882446E-1,1.595459E-1,5.667892E0,8.999634E-2,3.8026598E-1,6.6432614E0,5.2474976E-2,1.5411377E-3,6.9122314E-3,1.2837492E-2,7.996543E0,9.185791E-3,2.533722E-1,-2.7821943E-2,-5.9743538E-3,2.7088022E-3,-2.431754E-2,-3.0068783E-3,-3.0690933E-2,6.5026144E-3,7.497076E-2,5.522681E-2,4.85358E-2,-3.0614683E-2,2.559787E-2,5.555678E-2,1.52372895E-2],"split_indices":[0,4,4,5,0,4,8,0,4,6,6,0,0,6,4,0,0,0,0,0,0,0,0,0,0,0,0,0,0],"split_type":[0,0,0,0,0,0,0,0,0,0,0,0,0,0,0,0,0,0,0,0,0,0,0,0,0,0,0,0,0],"sum_hessian":[1.0427804E3,8.7659357E2,1.6618683E2,8.59979E2,1.6614603E1,1.5635464E2,9.832184E0,8.212988E2,3.8680138E1,9.948604E0,6.666E0,1.6360141E0,1.5471863E2,2.9219222E0,6.9102616E0,8.051868E2,1.6112007E1,2.6921778E1,1.1758362E1,3.0041556E0,6.944448E0,2.171844E0,4.494156E0,1.03719284E2,5.0999348E1,1.7855542E0,1.136368E0,5.3494406E0,1.5608213E0],"tree_param":{"num_deleted":"0","num_feature":"11","num_nodes":"29","size_leaf_vector":"1"}},{"base_weights":[1.2940328E-1,2.3763442E-1,-5.922623E-1,1.1749922E-1,4.6705115E-1,-6.11023E-1,-1.6335373E-1,7.577376E-1,2.8396988E-2,6.8632895E-1,3.5318497E-1,-3.3169892E-1,-6.2851363E-1,4.7959976E-2,-4.5859766E-1,-1.651643E-2,3.8864814E-2,-1.4178358E-2,9.705714E-3,4.7767777E-2,3.2056507E-2,-4.9149906E-3,2.0611798E-2,-3.1074483E-2,-9.815945E-3,-3.173603E-2,2.7382784E-3,1.3799593E-2,-3.4144323E-2],"categories":[],"categories_nodes":[],"categories_segments":[],"categories_sizes":[],"default_left":[0,0,0,0,0,0,0,0,0,0,0,0,0,0,0,0,0,0,0,0,0,0,0,0,0,0,0,0,0],"id":24,"left_children":[1,3,5,7,9,11,13,15,17,19,21,23,25,-1,27,-1,-1,-1,-1,-1,-1,-1,-1,-1,-1,-1,-1,-1,-1],"loss_changes":[1.0554313E2,3.234619E1,1.3683243E0,4.4005764E1,9.954224E0,7.198677E-1,2.8941357E0,2.1340103E0,3.5070602E1,1.3643951E0,7.1289253E0,3.705008E-1,6.8826294E-1,0E0,1.2025363E0,0E0,0E0,0E0,0E0,0E0,0E0,0E0,0E0,0E0,0E0,0E0,0E0,0E0,0E0],"parents":[2147483647,0,0,1,1,2,2,3,3,4,4,5,5,6,6,7,7,8,8,9,9,10,10,11,11,12,12,14,14],"right_children":[2,4,6,8,10,12,14,16,18,20,22,24,26,-1,28,-1,-1,-1,-1,-1,-1,-1,-1,-1,-1,-1,-1,-1,-1],"split_conditions":[6.362235E0,2.561663E-1,6.496887E-1,1.00372314E-1,5.3219886E0,3.4028625E-1,4.6279907E-2,4.1729736E-1,5.383083E0,2.2888184E-4,9.0382385E-1,6.5523386E0,1.8092346E-1,4.7959976E-2,9.400482E-1,-1.651643E-2,3.8864814E-2,-1.4178358E-2,9.705714E-3,4.7767777E-2,3.2056507E-2,-4.9149906E-3,2.0611798E-2,-3.1074483E-2,-9.815945E-3,-3.173603E-2,2.7382784E-3,1.3799593E-2,-3.4144323E-2],"split_indices":[0,8,3,5,0,3,5,3,0,5,9,0,1,0,9,0,0,0,0,0,0,0,0,0,0,0,0,0,0],"split_type":[0,0,0,0,0,0,0,0,0,0,0,0,0,0,0,0,0,0,0,0,0,0,0,0,0,0,0,0,0],"sum_hessian":[1.3498678E3,1.1741162E3,1.7575165E2,7.7108813E2,4.0302805E2,1.6818292E2,7.568722E0,9.3744064E1,6.7734406E2,1.3689285E2,2.661352E2,1.0498857E1,1.5768407E2,1.3419701E0,6.226752E0,1.5150676E0,9.2229E1,2.348609E2,4.4248315E2,1.824269E1,1.1865017E2,3.0744032E1,2.3539117E2,2.771312E0,7.727545E0,1.5629974E2,1.3843185E0,1.4295235E0,4.7972283E0],"tree_param":{"num_deleted":"0","num_feature":"11","num_nodes":"29","size_leaf_vector":"1"}},{"base_weights":[7.9418994E-2,1.7508075E-1,-5.350151E-1,2.4412255E-1,-4.1965064E-1,-5.803389E-1,1.929031E-1,3.635125E-1,4.151161E-2,-4.7857422E-1,2.8089324E-1,-6.4735633E-1,-2.8835082E-1,5.250991E-1,-4.7192064E-1,-7.150497E-3,2.1631762E-2,-1.4611698E-3,2.2989815E-2,-1.6477266E-2,-3.0741695E-2,2.1908036E-2,-2.6447302E-2,-8.112008E-3,-3.2825213E-2,2.8828228E-2,-2.0479761E-2,-1.0729285E-3,4.3628037E-2,-3.014397E-2,-4.3239393E-3],"categories":[],"categories_nodes":[],"categories_segments":[],"categories_sizes":[],"default_left":[0,0,0,0,0,0,0,0,0,0,0,0,0,0,0,0,0,0,0,0,0,0,0,0,0,0,0,0,0,0,0],"id":25,"left_children":[1,3,5,7,9,11,13,15,17,19,21,23,25,27,29,-1,-1,-1,-1,-1,-1,-1,-1,-1,-1,-1,-1,-1,-1,-1,-1],"loss_changes":[7.598903E1,4.5971775E1,5.802532E0,2.4238617E1,4.876461E0,3.1177292E0,2.461593E0,2.2110657E1,1.1019284E1,2.0847569E0,1.3072616E0,5.372429E-1,3.4249368E0,1.3946984E0,1.6524476E-1,0E0,0E0,0E0,0E0,0E0,0E0,0E0,0E0,0E0,0E0,0E0,0E0,0E0,0E0,0E0,0E0],"parents":[2147483647,0,0,1,1,2,2,3,3,4,4,5,5,6,6,7,7,8,8,9,9,10,10,11,11,12,12,13,13,14,14],"right_children":[2,4,6,8,10,12,14,16,18,20,22,24,26,28,30,-1,-1,-1,-1,-1,-1,-1,-1,-1,-1,-1,-1,-1,-1,-1,-1],"split_conditions":[9.579773E-1,1.3050842E-1,1.3882446E-1,1.0526011E0,2.593994E-4,7.980347E-3,2.4789429E-1,1.053772E-1,4.4403076E-3,1.4465332E-1,9.3247986E-1,3.112793E-3,8.1404114E-1,1.6394043E-1,1.4465332E-2,-7.150497E-3,2.1631762E-2,-1.4611698E-3,2.2989815E-2,-1.6477266E-2,-3.0741695E-2,2.1908036E-2,-2.6447302E-2,-8.112008E-3,-3.2825213E-2,2.8828228E-2,-2.0479761E-2,-1.0729285E-3,4.3628037E-2,-3.014397E-2,-4.3239393E-3],"split_indices":[9,5,4,7,2,6,4,5,2,5,3,5,3,4,6,0,0,0,0,0,0,0,0,0,0,0,0,0,0,0,0],"split_type":[0,0,0,0,0,0,0,0,0,0,0,0,0,0,0,0,0,0,0,0,0,0,0,0,0,0,0,0,0,0,0],"sum_hessian":[1.2915209E3,1.1178408E3,1.7368005E2,1.0018337E3,1.1600714E2,1.6359517E2,1.0084885E1,6.301287E2,3.7170496E2,1.0715282E2,8.854324E0,1.3256108E2,3.103408E1,6.794783E0,3.290101E0,7.56009E1,5.5452783E2,3.183369E2,5.3368034E1,5.199475E1,5.515807E1,7.6066256E0,1.2476991E0,2.6268542E0,1.2993423E2,3.5846612E0,2.7449419E1,2.823125E0,3.9716582E0,2.2452023E0,1.0448989E0],"tree_param":{"num_deleted":"0","num_feature":"11","num_nodes":"31","size_leaf_vector":"1"}},{"base_weights":[-2.583474E-1,9.961903E-1,-4.7018823E-1,1.0084194E0,-2.2470275E-2,-1.407282E-1,-5.503461E-1,1.7030595E-2,1.013541E0,4.7698116E-1,-2.296849E-1,-5.9663635E-1,-4.7398314E-1,5.1314592E-2,3.1961706E-2,-2.9482279E-2,4.168492E-2,-3.1812035E-2,-8.842737E-3,-2.7748883E-2,-3.1184465E-2,8.059037E-3,-2.423163E-2],"categories":[],"categories_nodes":[],"categories_segments":[],"categories_sizes":[],"default_left":[0,0,0,0,0,0,0,0,0,0,0,0,0,0,0,0,0,0,0,0,0,0,0],"id":26,"left_children":[1,3,5,7,-1,9,11,-1,13,15,17,19,21,-1,-1,-1,-1,-1,-1,-1,-1,-1,-1],"loss_changes":[2.7232413E2,2.8441315E0,2.3101822E1,3.3007812E-1,0E0,9.5139475E0,2.3492737E0,0E0,3.669281E-1,8.552637E0,3.1829185E0,3.1913757E-1,1.8542404E0,0E0,0E0,0E0,0E0,0E0,0E0,0E0,0E0,0E0,0E0],"parents":[2147483647,0,0,1,1,2,2,3,3,5,5,6,6,8,8,9,9,10,10,11,11,12,12],"right_children":[2,4,6,8,-1,10,12,-1,14,16,18,20,22,-1,-1,-1,-1,-1,-1,-1,-1,-1,-1],"split_conditions":[1.7465763E-1,5.0154114E-1,9.6728516E-1,2.89917E-3,-2.2470275E-2,4.91333E-3,2.4686085E-1,1.7030595E-2,3.8012695E-1,2.2888184E-3,3.1433105E-3,1.6714718E7,2.4712065E-1,5.1314592E-2,3.1961706E-2,-2.9482279E-2,4.168492E-2,-3.1812035E-2,-8.842737E-3,-2.7748883E-2,-3.1184465E-2,8.059037E-3,-2.423163E-2],"split_indices":[8,3,3,6,0,5,8,0,3,5,6,10,8,0,0,0,0,0,0,0,0,0,0],"split_type":[0,0,0,0,0,0,0,0,0,0,0,0,0,0,0,0,0,0,0,0,0,0,0],"sum_hessian":[1.02330927E3,1.4756525E2,8.75744E2,1.4647733E2,1.0879261E0,1.7164333E2,7.0410065E2,1.3717045E0,1.4510562E2,2.1332296E1,1.5031102E2,4.3624655E2,2.6785413E2,1.3948317E2,5.622442E0,5.2644577E0,1.6067839E1,1.665103E1,1.3365999E2,1.7599306E2,2.6025348E2,4.3003635E0,2.6355377E2],"tree_param":{"num_deleted":"0","num_feature":"11","num_nodes":"23","size_leaf_vector":"1"}},{"base_weights":[1.1617896E-1,2.174685E-1,-5.7635754E-1,8.8180974E-2,3.9979035E-1,1.2055668E-2,-5.841101E-1,6.1992407E-1,6.669245E-4,5.8883476E-1,3.1720823E-1,-5.9224945E-1,2.7943205E-2,3.373921E-2,-1.3738127E-2,-1.4896417E-2,8.6538E-3,3.0112717E-2,-3.2853987E-2,4.8766397E-3,2.1660725E-2,-2.9995928E-2,-1.5058733E-3,-7.95104E-3,1.0490896E-2],"categories":[],"categories_nodes":[],"categories_segments":[],"categories_sizes":[],"default_left":[0,0,0,0,0,0,0,0,0,0,0,0,0,0,0,0,0,0,0,0,0,0,0,0,0],"id":27,"left_children":[1,3,5,7,9,-1,11,13,15,17,19,21,23,-1,-1,-1,-1,-1,-1,-1,-1,-1,-1,-1,-1],"loss_changes":[9.382494E1,2.7478317E1,1.1521568E0,3.1789696E1,7.4600067E0,0E0,8.513565E-1,4.831211E0,3.024991E1,2.6475258E0,8.587681E0,7.1105194E-1,1.0844199E-1,0E0,0E0,0E0,0E0,0E0,0E0,0E0,0E0,0E0,0E0,0E0,0E0],"parents":[2147483647,0,0,1,1,2,2,3,3,4,4,6,6,7,7,8,8,9,9,10,10,11,11,12,12],"right_children":[2,4,6,8,10,-1,12,14,16,18,20,22,24,-1,-1,-1,-1,-1,-1,-1,-1,-1,-1,-1,-1],"split_conditions":[6.362235E0,1.0526011E0,6.5612793E-4,1.0179138E-1,5.3219886E0,1.2055668E-2,1.203666E0,5.950928E-4,5.388575E0,9.9765015E-1,1.373291E-2,1.54418945E-2,7.461548E-3,3.373921E-2,-1.3738127E-2,-1.4896417E-2,8.6538E-3,3.0112717E-2,-3.2853987E-2,4.8766397E-3,2.1660725E-2,-2.9995928E-2,-1.5058733E-3,-7.95104E-3,1.0490896E-2],"split_indices":[0,7,2,5,0,0,7,2,0,3,6,6,2,0,0,0,0,0,0,0,0,0,0,0,0],"split_type":[0,0,0,0,0,0,0,0,0,0,0,0,0,0,0,0,0,0,0,0,0,0,0,0,0],"sum_hessian":[1.3361598E3,1.1659695E3,1.7019028E2,6.826398E2,4.833297E2,1.4574482E0,1.6873282E2,9.6041466E1,5.8659827E2,1.4601395E2,3.3731577E2,1.6653433E2,2.1984832E0,9.060846E1,5.4330115E0,2.1458849E2,3.720098E2,1.4471356E2,1.3003821E0,1.1688903E2,2.2042673E2,1.6425977E2,2.274578E0,1.115055E0,1.0834281E0],"tree_param":{"num_deleted":"0","num_feature":"11","num_nodes":"25","size_leaf_vector":"1"}},{"base_weights":[6.2862955E-2,-5.4778826E-1,1.5421881E-1,-5.8607143E-1,-5.7830803E-2,2.338016E-1,-3.461135E-1,-5.997403E-1,2.2792108E-2,-3.3036813E-1,5.6140226E-1,-4.5475474E-1,2.7371207E-1,-9.340327E-2,-4.2695773E-1,-3.207326E-2,-1.989681E-2,4.8298E-3,-3.2657582E-2,-2.5542334E-2,5.0566476E-2,-3.0079693E-2,6.7404546E-3,2.981234E-2,6.359638E-3,-7.5393653E-4,-2.4704434E-2,-2.3579529E-2,3.71808E-3],"categories":[],"categories_nodes":[],"categories_segments":[],"categories_sizes":[],"default_left":[0,0,0,0,0,0,0,0,0,0,0,0,0,0,0,0,0,0,0,0,0,0,0,0,0,0,0,0,0],"id":28,"left_children":[1,3,5,7,9,11,13,15,-1,17,19,21,23,25,27,-1,-1,-1,-1,-1,-1,-1,-1,-1,-1,-1,-1,-1,-1],"loss_changes":[7.2601364E1,3.1599655E0,4.5105698E1,2.373249E0,2.2579038E0,2.6904366E1,3.1573277E0,1.1793938E0,0E0,1.3026919E0,2.2392497E0,4.68958E0,4.360749E1,1.1993083E0,2.6507778E0,0E0,0E0,0E0,0E0,0E0,0E0,0E0,0E0,0E0,0E0,0E0,0E0,0E0,0E0],"parents":[2147483647,0,0,1,1,2,2,3,3,4,4,5,5,6,6,7,7,9,9,10,10,11,11,12,12,13,13,14,14],"right_children":[2,4,6,8,10,12,14,16,-1,18,20,22,24,26,28,-1,-1,-1,-1,-1,-1,-1,-1,-1,-1,-1,-1,-1,-1],"split_conditions":[1.0436333E0,1.3153076E-2,1.2788391E-1,7.1258545E-3,5.825082E0,5.192094E0,1.3096619E-1,5.264282E-3,2.2792108E-2,1.6098022E-2,1.3290405E-2,1.4691206E0,5.383996E0,5.436351E0,3.3569336E-4,-3.207326E-2,-1.989681E-2,4.8298E-3,-3.2657582E-2,-2.5542334E-2,5.0566476E-2,-3.0079693E-2,6.7404546E-3,2.981234E-2,6.359638E-3,-7.5393653E-4,-2.4704434E-2,-2.3579529E-2,3.71808E-3],"split_indices":[7,6,5,2,0,0,5,6,0,6,5,7,0,0,2,0,0,0,0,0,0,0,0,0,0,0,0,0,0],"split_type":[0,0,0,0,0,0,0,0,0,0,0,0,0,0,0,0,0,0,0,0,0,0,0,0,0,0,0,0,0],"sum_hessian":[1.3001559E3,1.68871E2,1.1312849E3,1.5654144E2,1.2329557E1,9.762665E2,1.5501846E2,1.5472382E2,1.8176353E0,8.723436E0,3.6061213E0,5.3201916E1,9.230646E2,3.7833305E1,1.1718515E2,1.27311646E2,2.7412169E1,3.9064817E0,4.816955E0,1.0458925E0,2.5602288E0,4.258526E1,1.0616657E1,2.8786005E2,6.352045E2,3.2081036E1,5.7522693E0,1.0763222E2,9.552934E0],"tree_param":{"num_deleted":"0","num_feature":"11","num_nodes":"29","size_leaf_vector":"1"}},{"base_weights":[-2.6338625E-1,-4.8329818E-1,9.566529E-1,-5.4604864E-1,-1.7786112E-1,9.7669387E-1,-2.953747E-2,3.416701E-1,-5.50576E-1,2.529489E-1,-4.0449727E-1,9.839558E-1,1.25280395E-2,4.2308625E-2,-2.3249647E-2,-3.0087877E-2,-2.5725458E-2,3.3185106E-2,-1.0649979E-2,-2.4382388E-2,1.445568E-3,4.9356747E-2,2.066896E-2],"categories":[],"categories_nodes":[],"categories_segments":[],"categories_sizes":[],"default_left":[0,0,0,0,0,0,0,0,0,0,0,0,0,0,0,0,0,0,0,0,0,0,0],"id":29,"left_children":[1,3,5,7,9,11,-1,13,15,17,19,21,-1,-1,-1,-1,-1,-1,-1,-1,-1,-1,-1],"loss_changes":[2.706213E2,1.632344E1,5.066696E0,2.9410706E0,1.4337877E1,6.798096E-1,0E0,1.7850795E0,1.1465607E0,9.783518E0,3.4694386E0,6.919861E-2,0E0,0E0,0E0,0E0,0E0,0E0,0E0,0E0,0E0,0E0,0E0],"parents":[2147483647,0,0,1,1,2,2,3,3,4,4,5,5,7,7,8,8,9,9,10,10,11,11],"right_children":[2,4,6,8,10,12,-1,14,16,18,20,22,-1,-1,-1,-1,-1,-1,-1,-1,-1,-1,-1],"split_conditions":[9.766388E-1,1.0314941E-2,1.6571045E-2,7.9351807E-1,7.417297E-2,5.0154114E-1,-2.953747E-2,9.842529E-1,2.3808575E-1,9.939575E-2,4.6940613E-1,6.6375732E-3,1.25280395E-2,4.2308625E-2,-2.3249647E-2,-3.0087877E-2,-2.5725458E-2,3.3185106E-2,-1.0649979E-2,-2.4382388E-2,1.445568E-3,4.9356747E-2,2.066896E-2],"split_indices":[9,1,1,9,1,3,0,3,8,5,4,2,0,0,0,0,0,0,0,0,0,0,0],"split_type":[0,0,0,0,0,0,0,0,0,0,0,0,0,0,0,0,0,0,0,0,0,0,0],"sum_hessian":[1.00728595E3,8.537073E2,1.5357872E2,7.078826E2,1.4582466E2,1.5179715E2,1.7815745E0,3.402925E0,7.044797E2,5.024895E1,9.557571E1,1.5011832E2,1.6788284E0,2.0785015E0,1.3244236E0,2.8797668E2,4.16503E2,2.6593477E1,2.3655476E1,8.013839E1,1.5437318E1,1.489235E2,1.1948152E0],"tree_param":{"num_deleted":"0","num_feature":"11","num_nodes":"23","size_leaf_vector":"1"}},{"base_weights":[1.3200182E-1,2.3289064E-1,-5.5757415E-1,5.986815E-1,1.6968173E-1,-5.764415E-1,3.2251802E-1,6.992357E-1,8.65223E-2,-2.736873E-1,2.514407E-1,-5.8968E-1,-1.3154567E-2,-2.5738537E-2,3.8448617E-2,3.7123125E-2,4.670109E-3,3.4591984E-2,-8.883778E-3,-1.9519703E-2,2.501685E-2,5.034582E-3,2.067387E-2,-1.795616E-2,-3.0297726E-2,-2.9027594E-2,2.7668213E-2],"categories":[],"categories_nodes":[],"categories_segments":[],"categories_sizes":[],"default_left":[0,0,0,0,0,0,0,0,0,0,0,0,0,0,0,0,0,0,0,0,0,0,0,0,0,0,0],"id":30,"left_children":[1,3,5,7,9,11,13,15,17,19,21,23,25,-1,-1,-1,-1,-1,-1,-1,-1,-1,-1,-1,-1,-1,-1],"loss_changes":[9.258344E1,2.6780792E1,2.9138107E0,8.765221E0,3.592807E1,1.2376747E0,1.6505711E0,3.7020645E0,4.6350975E0,1.4045659E1,2.0406929E1,5.0152206E-1,1.5539181E0,0E0,0E0,0E0,0E0,0E0,0E0,0E0,0E0,0E0,0E0,0E0,0E0,0E0,0E0],"parents":[2147483647,0,0,1,1,2,2,3,3,4,4,5,5,6,6,7,7,8,8,9,9,10,10,11,11,12,12],"right_children":[2,4,6,8,10,12,14,16,18,20,22,24,26,-1,-1,-1,-1,-1,-1,-1,-1,-1,-1,-1,-1,-1,-1],"split_conditions":[6.261139E0,1.0121155E-1,7.701111E-2,5.623861E0,1.184082E-2,1.203666E0,1.0561634E0,1.5892909E0,1.08444214E-1,1.2155151E-1,1.050711E0,1.12091064E-1,7.583618E-3,-2.5738537E-2,3.8448617E-2,3.7123125E-2,4.670109E-3,3.4591984E-2,-8.883778E-3,-1.9519703E-2,2.501685E-2,5.034582E-3,2.067387E-2,-1.795616E-2,-3.0297726E-2,-2.9027594E-2,2.7668213E-2],"split_indices":[0,5,5,0,6,7,7,7,4,5,7,4,5,0,0,0,0,0,0,0,0,0,0,0,0,0,0],"split_type":[0,0,0,0,0,0,0,0,0,0,0,0,0,0,0,0,0,0,0,0,0,0,0,0,0,0,0],"sum_hessian":[1.3293527E3,1.1599731E3,1.6937943E2,1.702866E2,9.896866E2,1.6599338E2,3.3860502E0,1.4218771E2,2.8098885E1,1.5390494E2,8.357817E2,1.6215886E2,3.834508E0,1.1509769E0,2.2350736E0,1.326129E2,9.574815E0,8.291798E0,1.9807087E1,1.3395511E2,1.9949825E1,4.3339145E2,4.023902E2,1.1452185E1,1.5070668E2,1.9095807E0,1.9249272E0],"tree_param":{"num_deleted":"0","num_feature":"11","num_nodes":"27","size_leaf_vector":"1"}},{"base_weights":[7.105372E-2,1.63246E-1,-5.2378076E-1,-3.1610847E-2,3.5955867E-1,-5.7145107E-1,2.598144E-1,4.225086E-2,-3.7685776E-1,-1.3638277E-1,4.2219406E-1,-6.233668E-1,-2.7304986E-1,5.189187E-1,-2.9255116E-2,2.0973964E-2,-6.531873E-5,-9.790379E-3,-2.1958467E-2,-8.231736E-3,4.4845283E-2,1.255762E-2,2.8499682E-2,-1.4879075E-2,-3.1546496E-2,4.385908E-2,-1.8501496E-2,3.681533E-2,-2.5926163E-2],"categories":[],"categories_nodes":[],"categories_segments":[],"categories_sizes":[],"default_left":[0,0,0,0,0,0,0,0,0,0,0,0,0,0,0,0,0,0,0,0,0,0,0,0,0,0,0,0,0],"id":31,"left_children":[1,3,5,7,9,11,13,15,17,19,21,23,25,27,-1,-1,-1,-1,-1,-1,-1,-1,-1,-1,-1,-1,-1,-1,-1],"loss_changes":[7.157088E1,4.321916E1,6.616703E0,1.4476995E1,1.7510628E1,2.4750404E0,2.4259245E0,7.6876097E0,1.085681E0,1.9270926E0,1.25631485E1,2.5200653E-1,2.9934704E0,2.0435724E0,0E0,0E0,0E0,0E0,0E0,0E0,0E0,0E0,0E0,0E0,0E0,0E0,0E0,0E0,0E0],"parents":[2147483647,0,0,1,1,2,2,3,3,4,4,5,5,6,6,7,7,8,8,9,9,10,10,11,11,12,12,13,13],"right_children":[2,4,6,8,10,12,14,16,18,20,22,24,26,28,-1,-1,-1,-1,-1,-1,-1,-1,-1,-1,-1,-1,-1,-1,-1],"split_conditions":[9.579773E-1,9.5202637E-1,3.2073975E-2,1.3096619E-1,1.053772E-1,6.796265E-2,7.9599E-1,4.1729736E-1,9.0026855E-1,9.030151E-2,9.789734E-1,3.5691833E-1,8.421936E-1,2.533722E-1,-2.9255116E-2,2.0973964E-2,-6.531873E-5,-9.790379E-3,-2.1958467E-2,-8.231736E-3,4.4845283E-2,1.255762E-2,2.8499682E-2,-1.4879075E-2,-3.1546496E-2,4.385908E-2,-1.8501496E-2,3.681533E-2,-2.5926163E-2],"split_indices":[9,9,1,5,5,5,3,3,3,1,3,3,3,4,0,0,0,0,0,0,0,0,0,0,0,0,0,0,0],"split_type":[0,0,0,0,0,0,0,0,0,0,0,0,0,0,0,0,0,0,0,0,0,0,0,0,0,0,0,0,0],"sum_hessian":[1.3038259E3,1.1291793E3,1.7464662E2,5.6690137E2,5.622779E2,1.6475882E2,9.887806E0,4.6735486E2,9.9546524E1,6.2984375E1,4.9929352E2,1.3987834E2,2.4880474E1,7.714864E0,2.172942E0,4.7931114E1,4.1942377E2,2.601871E1,7.352782E1,6.171725E1,1.2671247E0,2.3207426E2,2.6721924E2,3.6313033E0,1.3624704E2,1.621865E0,2.325861E1,6.498324E0,1.21654E0],"tree_param":{"num_deleted":"0","num_feature":"11","num_nodes":"29","size_leaf_vector":"1"}},{"base_weights":[-2.6964328E-1,-5.0014806E-1,9.0493447E-1,-5.163309E-1,2.8962755E-1,9.151042E-1,-2.3036348E-2,-5.4830194E-1,-2.7396813E-1,-4.0655288E-1,9.854413E-1,1.1965559E-2,9.213317E-1,-2.9310523E-2,-2.4565747E-2,9.541029E-3,-2.385134E-2,-2.9515047E-2,4.4412697E-3,7.310332E-2,1.3845682E-2,4.6709094E-2,3.2461938E-2],"categories":[],"categories_nodes":[],"categories_segments":[],"categories_sizes":[],"default_left":[0,0,0,0,0,0,0,0,0,0,0,0,0,0,0,0,0,0,0,0,0,0,0],"id":32,"left_children":[1,3,5,7,9,11,-1,13,15,17,19,-1,21,-1,-1,-1,-1,-1,-1,-1,-1,-1,-1],"loss_changes":[2.686452E2,1.0671173E1,2.4720917E0,6.2215576E0,8.419597E0,5.706177E-1,0E0,1.4057922E0,9.077856E0,8.3046675E-1,2.7126236E0,0E0,2.5663757E-1,0E0,0E0,0E0,0E0,0E0,0E0,0E0,0E0,0E0,0E0],"parents":[2147483647,0,0,1,1,2,2,3,3,4,4,5,5,7,7,8,8,9,9,10,10,12,12],"right_children":[2,4,6,8,10,12,-1,14,16,18,20,-1,22,-1,-1,-1,-1,-1,-1,-1,-1,-1,-1],"split_conditions":[7.1537185E0,4.6940613E-1,1.0740438E0,1.0818449E0,5.667892E0,8.999634E-2,-2.3036348E-2,2.4686085E-1,6.4971924E-2,6.1917114E-1,1.1016846E-2,1.1965559E-2,3.0914307E-2,-2.9310523E-2,-2.4565747E-2,9.541029E-3,-2.385134E-2,-2.9515047E-2,4.4412697E-3,7.310332E-2,1.3845682E-2,4.6709094E-2,3.2461938E-2],"split_indices":[0,4,7,7,0,4,0,8,1,1,2,0,1,0,0,0,0,0,0,0,0,0,0],"split_type":[0,0,0,0,0,0,0,0,0,0,0,0,0,0,0,0,0,0,0,0,0,0,0],"sum_hessian":[9.909055E2,8.2858673E2,1.6231876E2,8.121192E2,1.646754E1,1.6128268E2,1.0360695E0,7.169167E2,9.520249E1,8.335503E0,8.132037E0,1.6526787E0,1.5963002E2,4.277372E2,2.891795E2,2.8955437E1,6.624705E1,6.0103188E0,2.325184E0,4.5437217E0,3.5883155E0,1.5126933E2,8.360672E0],"tree_param":{"num_deleted":"0","num_feature":"11","num_nodes":"23","size_leaf_vector":"1"}},{"base_weights":[1.18223876E-1,2.1293402E-1,-5.705113E-1,7.1928896E-2,3.6502683E-1,-5.9781206E-1,3.5142116E-2,5.530378E-1,-3.3455834E-2,5.553596E-1,2.905639E-1,-3.0911508E-1,-6.079804E-1,-3.70669E-1,4.6021736E-1,2.9729012E-2,-1.1614489E-2,-1.49142435E-2,6.924748E-3,4.3083947E-2,2.5294129E-2,5.697343E-3,2.0756071E-2,1.7006662E-2,-3.1807523E-2,-2.7245954E-2,-3.21978E-2,-3.5802328E-3,-2.956118E-2,3.9155155E-2,-1.1170043E-2],"categories":[],"categories_nodes":[],"categories_segments":[],"categories_sizes":[],"default_left":[0,0,0,0,0,0,0,0,0,0,0,0,0,0,0,0,0,0,0,0,0,0,0,0,0,0,0,0,0,0,0],"id":33,"left_children":[1,3,5,7,9,11,13,15,17,19,21,23,25,27,29,-1,-1,-1,-1,-1,-1,-1,-1,-1,-1,-1,-1,-1,-1,-1,-1],"loss_changes":[8.65847E1,2.5002438E1,2.6641426E0,3.0729904E1,7.8707886E0,3.5691833E-1,1.3608425E0,3.621933E0,2.2676014E1,2.1648483E0,8.87096E0,1.4337182E0,1.5997314E-1,2.4662381E-1,9.3388E-1,0E0,0E0,0E0,0E0,0E0,0E0,0E0,0E0,0E0,0E0,0E0,0E0,0E0,0E0,0E0,0E0],"parents":[2147483647,0,0,1,1,2,2,3,3,4,4,5,5,6,6,7,7,8,8,9,9,10,10,11,11,12,12,13,13,14,14],"right_children":[2,4,6,8,10,12,14,16,18,20,22,24,26,28,30,-1,-1,-1,-1,-1,-1,-1,-1,-1,-1,-1,-1,-1,-1,-1,-1],"split_conditions":[6.362235E0,2.451858E-1,6.496887E-1,1.053772E-1,5.3219886E0,8.6053467E-1,1.0637752E0,5.667892E0,5.3964505E0,2.2888184E-4,1.1955261E-1,3.0082467E0,3.70636E-1,7.290039E-1,6.730239E0,2.9729012E-2,-1.1614489E-2,-1.49142435E-2,6.924748E-3,4.3083947E-2,2.5294129E-2,5.697343E-3,2.0756071E-2,1.7006662E-2,-3.1807523E-2,-2.7245954E-2,-3.21978E-2,-3.5802328E-3,-2.956118E-2,3.9155155E-2,-1.1170043E-2],"split_indices":[0,8,3,5,0,9,7,0,0,5,5,8,3,3,0,0,0,0,0,0,0,0,0,0,0,0,0,0,0,0,0],"split_type":[0,0,0,0,0,0,0,0,0,0,0,0,0,0,0,0,0,0,0,0,0,0,0,0,0,0,0,0,0,0,0],"sum_hessian":[1.3259401E3,1.1659518E3,1.599883E2,6.054117E2,5.6054016E2,1.5309383E2,6.8944707E0,1.084024E2,4.9700928E2,1.5672087E2,4.0381927E2,5.742869E0,1.4735095E2,3.5598996E0,3.3345714E0,1.0307154E2,5.330854E0,1.955172E2,3.0149207E2,2.0652203E1,1.3606866E2,1.6740446E2,2.3641483E2,1.917037E0,3.8258317E0,5.6458595E1,9.089236E1,1.7921436E0,1.767756E0,2.2154224E0,1.1191491E0],"tree_param":{"num_deleted":"0","num_feature":"11","num_nodes":"31","size_leaf_vector":"1"}},{"base_weights":[7.9497814E-2,1.6032614E-1,-4.9357146E-1,3.6110198E-1,-3.6231764E-2,-5.1849884E-1,3.818123E-2,1.300274E-1,4.9660468E-1,1.0373831E-1,-2.583599E-1,-6.0973245E-1,-2.924031E-1,2.8009435E-2,7.09074E-4,3.9154045E-2,2.0802107E-2,1.9135813E-3,1.9867992E-2,-1.4451499E-2,8.570674E-3,6.441855E-3,-3.1007767E-2,-2.0564497E-2,6.9470555E-3],"categories":[],"categories_nodes":[],"categories_segments":[],"categories_sizes":[],"default_left":[0,0,0,0,0,0,0,0,0,0,0,0,0,0,0,0,0,0,0,0,0,0,0,0,0],"id":34,"left_children":[1,3,5,7,9,11,-1,13,15,17,19,21,23,-1,-1,-1,-1,-1,-1,-1,-1,-1,-1,-1,-1],"loss_changes":[6.1002937E1,4.554095E1,5.30019E0,1.7841133E1,1.8154804E1,3.210064E0,0E0,1.0544603E1,8.137566E0,6.879714E0,2.9996595E0,9.136429E-1,2.4359503E0,0E0,0E0,0E0,0E0,0E0,0E0,0E0,0E0,0E0,0E0,0E0,0E0],"parents":[2147483647,0,0,1,1,2,2,3,3,4,4,5,5,7,7,8,8,9,9,10,10,11,11,12,12],"right_children":[2,4,6,8,10,12,-1,14,16,18,20,22,24,-1,-1,-1,-1,-1,-1,-1,-1,-1,-1,-1,-1],"split_conditions":[9.579773E-1,2.4372265E-1,7.1258545E-3,1.6714718E7,1.52282715E-2,5.264282E-3,3.818123E-2,1.0070801E-2,1.2207031E-2,4.3640137E-3,4.8828125E-4,3.4028625E-1,3.8146973E-4,2.8009435E-2,7.09074E-4,3.9154045E-2,2.0802107E-2,1.9135813E-3,1.9867992E-2,-1.4451499E-2,8.570674E-3,6.441855E-3,-3.1007767E-2,-2.0564497E-2,6.9470555E-3],"split_indices":[9,8,2,10,6,6,0,6,6,2,2,3,2,0,0,0,0,0,0,0,0,0,0,0,0],"split_type":[0,0,0,0,0,0,0,0,0,0,0,0,0,0,0,0,0,0,0,0,0,0,0,0,0],"sum_hessian":[1.3156284E3,1.1533191E3,1.6230931E2,5.703309E2,5.829882E2,1.5944173E2,2.867588E0,2.1118092E2,3.5914993E2,3.5779596E2,2.2519223E2,1.1299703E2,4.6444687E1,4.4399185E1,1.6678174E2,7.7874016E1,2.812759E2,2.93027E2,6.476896E1,2.1034505E2,1.4847186E1,1.4933949E0,1.1150364E2,3.6427742E1,1.0016944E1],"tree_param":{"num_deleted":"0","num_feature":"11","num_nodes":"25","size_leaf_vector":"1"}},{"base_weights":[-2.4057661E-1,-4.8339775E-1,8.6666113E-1,-5.108805E-1,-4.9957755E-4,8.8440454E-1,2.4207848E-1,-5.341754E-1,-2.2388966E-1,-3.760831E-1,3.3905208E-1,2.1513466E-2,8.900589E-1,6.747104E-1,-2.8793937E-2,-3.0003954E-2,-2.5195224E-2,-1.4662995E-2,3.6012817E-2,1.9109364E-3,-2.5513003E-2,-1.4513974E-2,4.3382872E-2,4.365768E-2,5.4433197E-2,5.0349016E-2,9.785352E-3],"categories":[],"categories_nodes":[],"categories_segments":[],"categories_sizes":[],"default_left":[0,0,0,0,0,0,0,0,0,0,0,0,0,0,0,0,0,0,0,0,0,0,0,0,0,0,0],"id":35,"left_children":[1,3,5,7,9,11,13,15,17,19,21,-1,23,25,-1,-1,-1,-1,-1,-1,-1,-1,-1,-1,-1,-1,-1],"loss_changes":[2.6467426E2,1.07105255E1,1.8556061E0,5.045166E0,5.6697392E0,2.5021362E-1,2.169085E0,1.2570648E0,3.9166844E0,1.1831799E0,7.8935404E0,0E0,9.358215E-2,5.190356E-1,0E0,0E0,0E0,0E0,0E0,0E0,0E0,0E0,0E0,0E0,0E0,0E0,0E0],"parents":[2147483647,0,0,1,1,2,2,3,3,4,4,5,5,6,6,7,7,8,8,9,9,10,10,12,12,13,13],"right_children":[2,4,6,8,10,12,14,16,18,20,22,-1,24,26,-1,-1,-1,-1,-1,-1,-1,-1,-1,-1,-1,-1,-1],"split_conditions":[7.1537185E0,2.1438599E-2,5.0154114E-1,5.623861E0,9.0026855E-1,3.1433105E-3,3.5247803E-3,1.0479723E0,9.4664E-1,4.2931217E-1,1.0818449E0,2.1513466E-2,2.4062058E-1,1.8920898E-3,-2.8793937E-2,-3.0003954E-2,-2.5195224E-2,-1.4662995E-2,3.6012817E-2,1.9109364E-3,-2.5513003E-2,-1.4513974E-2,4.3382872E-2,4.365768E-2,5.4433197E-2,5.0349016E-2,9.785352E-3],"split_indices":[0,6,3,0,3,6,2,7,3,8,7,0,8,2,0,0,0,0,0,0,0,0,0,0,0,0,0],"split_type":[0,0,0,0,0,0,0,0,0,0,0,0,0,0,0,0,0,0,0,0,0,0,0,0,0,0,0],"sum_hessian":[9.831497E2,8.0655176E2,1.7659795E2,7.630936E2,4.345815E1,1.7151741E2,5.0805373E0,7.0540546E2,5.7688198E1,2.060872E1,2.284943E1,2.5833104E0,1.689341E2,3.3802352E0,1.7003019E0,2.1906404E2,4.863414E2,5.4060825E1,3.627372E0,5.129085E0,1.5479635E1,1.0533815E1,1.2315615E1,1.5816895E2,1.0765157E1,1.6704059E0,1.7098293E0],"tree_param":{"num_deleted":"0","num_feature":"11","num_nodes":"27","size_leaf_vector":"1"}},{"base_weights":[1.1904983E-1,2.1155733E-1,-5.520391E-1,6.575086E-1,1.5832017E-1,-2.9085347E-1,-5.797536E-1,6.977053E-1,2.9502965E-3,-3.5141524E-2,2.660487E-1,-3.904006E-1,2.9069856E-2,-5.854326E-1,-2.1966049E-1,3.7856556E-2,2.5331924E-2,-3.7694264E-2,1.8412204E-2,-7.73181E-3,3.0974422E-2,1.4390024E-2,-6.379687E-3,-2.3130054E-2,2.6935045E-4,-2.202007E-2,-3.0007392E-2,1.2737359E-2,-2.6328733E-2],"categories":[],"categories_nodes":[],"categories_segments":[],"categories_sizes":[],"default_left":[0,0,0,0,0,0,0,0,0,0,0,0,0,0,0,0,0,0,0,0,0,0,0,0,0,0,0,0,0],"id":36,"left_children":[1,3,5,7,9,11,13,15,17,19,21,23,-1,25,27,-1,-1,-1,-1,-1,-1,-1,-1,-1,-1,-1,-1,-1,-1],"loss_changes":[8.297662E1,2.782489E1,1.0879745E0,3.2896233E0,2.1880486E1,1.5495958E0,2.3408508E-1,1.1460686E0,2.27816E0,2.9450329E1,5.7916946E0,4.340074E-1,0E0,1.737709E-1,5.1344085E-1,0E0,0E0,0E0,0E0,0E0,0E0,0E0,0E0,0E0,0E0,0E0,0E0,0E0,0E0],"parents":[2147483647,0,0,1,1,2,2,3,3,4,4,5,5,6,6,7,7,8,8,9,9,10,10,11,11,13,13,14,14],"right_children":[2,4,6,8,10,12,14,16,18,20,22,24,-1,26,28,-1,-1,-1,-1,-1,-1,-1,-1,-1,-1,-1,-1,-1,-1],"split_conditions":[6.362235E0,5.2279496E0,6.6432614E0,1.9301976E0,5.3878555E0,1.4205933E-2,3.92807E-1,2.1438599E-2,2.1903665E0,1.295929E-1,1.184845E-1,1.1803609E0,2.9069856E-2,1.12091064E-1,4.3093872E-1,3.7856556E-2,2.5331924E-2,-3.7694264E-2,1.8412204E-2,-7.73181E-3,3.0974422E-2,1.4390024E-2,-6.379687E-3,-2.3130054E-2,2.6935045E-4,-2.202007E-2,-3.0007392E-2,1.2737359E-2,-2.6328733E-2],"split_indices":[0,0,0,7,0,6,4,6,8,5,4,7,0,4,4,0,0,0,0,0,0,0,0,0,0,0,0,0,0],"split_type":[0,0,0,0,0,0,0,0,0,0,0,0,0,0,0,0,0,0,0,0,0,0,0,0,0,0,0,0,0],"sum_hessian":[1.3351509E3,1.1737021E3,1.6144878E2,1.2456705E2,1.0491351E3,1.6039284E1,1.454095E2,1.1732887E2,7.238178E0,3.7537097E2,6.737641E2,1.46442E1,1.3950844E0,1.4284383E2,2.5656705E0,8.836437E1,2.89645E1,2.1831403E0,5.055038E0,3.1775128E2,5.7619713E1,6.386104E2,3.515371E1,1.2313532E1,2.3306682E0,1.4582786E1,1.2826103E2,1.0412152E0,1.5244553E0],"tree_param":{"num_deleted":"0","num_feature":"11","num_nodes":"29","size_leaf_vector":"1"}},{"base_weights":[5.5279434E-2,-5.5385935E-1,1.2636098E-1,-5.9277713E-1,3.6422008E-1,1.9136502E-1,-3.1572208E-1,-6.1626214E-1,3.1001745E-2,-2.7250389E-2,7.372308E-1,4.069759E-1,7.726891E-2,-3.437709E-1,5.635735E-1,-3.1756748E-2,-2.4965063E-2,4.61269E-2,8.956853E-3,-2.4865871E-2,2.5528118E-2,-3.0955733E-3,1.2431313E-2,-1.1575576E-2,-2.5726367E-2,4.022729E-2,-7.5625107E-3],"categories":[],"categories_nodes":[],"categories_segments":[],"categories_sizes":[],"default_left":[0,0,0,0,0,0,0,0,0,0,0,0,0,0,0,0,0,0,0,0,0,0,0,0,0,0,0],"id":37,"left_children":[1,3,5,7,9,11,13,15,-1,-1,17,19,21,23,25,-1,-1,-1,-1,-1,-1,-1,-1,-1,-1,-1,-1],"loss_changes":[5.5548996E1,4.8982887E0,3.3036316E1,3.8599396E0,2.1550715E0,2.4624683E1,3.7327871E0,1.2092209E-1,0E0,0E0,3.618927E-1,3.2584423E1,1.5644165E1,2.6849804E0,8.784808E-1,0E0,0E0,0E0,0E0,0E0,0E0,0E0,0E0,0E0,0E0,0E0,0E0],"parents":[2147483647,0,0,1,1,2,2,3,3,4,4,5,5,6,6,7,7,10,10,11,11,12,12,13,13,14,14],"right_children":[2,4,6,8,10,12,14,16,-1,-1,18,20,22,24,26,-1,-1,-1,-1,-1,-1,-1,-1,-1,-1,-1,-1],"split_conditions":[4.623413E-3,6.6375732E-3,1.2788391E-1,1.9301976E0,2.2888184E-3,5.383083E0,5.825082E0,6.30188E-3,3.1001745E-2,-2.7250389E-2,1.6714718E7,9.802246E-2,1.6714718E7,4.5776367E-5,3.8909912E-3,-3.1756748E-2,-2.4965063E-2,4.61269E-2,8.956853E-3,-2.4865871E-2,2.5528118E-2,-3.0955733E-3,1.2431313E-2,-1.1575576E-2,-2.5726367E-2,4.022729E-2,-7.5625107E-3],"split_indices":[5,2,5,7,5,0,0,1,0,0,10,5,10,1,2,0,0,0,0,0,0,0,0,0,0,0,0],"split_type":[0,0,0,0,0,0,0,0,0,0,0,0,0,0,0,0,0,0,0,0,0,0,0,0,0,0,0],"sum_hessian":[1.2816223E3,1.3357188E2,1.1480505E3,1.2830994E2,5.2619443E0,1.00112787E3,1.4692262E2,1.26113785E2,2.1961477E0,1.4636612E0,3.798283E0,3.459992E2,6.5512866E2,1.4267589E2,4.2467294E0,1.0668412E2,1.942966E1,2.606367E0,1.1919158E0,3.5365303E1,3.106339E2,3.6168176E2,2.934469E2,8.6793594E1,5.58823E1,3.1291215E0,1.1176078E0],"tree_param":{"num_deleted":"0","num_feature":"11","num_nodes":"27","size_leaf_vector":"1"}},{"base_weights":[-2.4534743E-1,-4.8226836E-1,8.441113E-1,-5.12556E-1,1.851369E-2,8.5935867E-1,2.848916E-1,5.818896E-1,-5.1887274E-1,-4.8349762E-1,2.16233E-1,4.2612767E-1,8.6490124E-1,6.49662E-1,-2.7096078E-2,4.783501E-2,-2.1813408E-2,-2.989204E-2,-2.3960179E-2,-3.048194E-2,3.374777E-2,-8.192293E-3,3.6585692E-2,1.0540783E-2,2.8005196E-2,4.2365707E-2,5.4766294E-2,4.87706E-2,8.918199E-3],"categories":[],"categories_nodes":[],"categories_segments":[],"categories_sizes":[],"default_left":[0,0,0,0,0,0,0,0,0,0,0,0,0,0,0,0,0,0,0,0,0,0,0,0,0,0,0,0,0],"id":38,"left_children":[1,3,5,7,9,11,13,15,17,19,21,23,25,27,-1,-1,-1,-1,-1,-1,-1,-1,-1,-1,-1,-1,-1,-1,-1],"loss_changes":[2.4704596E2,1.1923737E1,1.3356705E0,5.2738647E0,4.548548E0,2.1483612E-1,1.770478E0,1.9213921E0,2.1655884E0,2.0987573E0,6.4949884E0,2.9959202E-2,1.9906616E-1,5.1109934E-1,0E0,0E0,0E0,0E0,0E0,0E0,0E0,0E0,0E0,0E0,0E0,0E0,0E0,0E0,0E0],"parents":[2147483647,0,0,1,1,2,2,3,3,4,4,5,5,6,6,7,7,8,8,9,9,10,10,11,11,12,12,13,13],"right_children":[2,4,6,8,10,12,14,16,18,20,22,24,26,28,-1,-1,-1,-1,-1,-1,-1,-1,-1,-1,-1,-1,-1,-1,-1],"split_conditions":[7.1537185E0,2.1438599E-2,5.0154114E-1,1.7631531E-1,1.0714449E0,2.89917E-3,1.0498694E0,1.9301976E0,1.0483077E0,2.6004028E-1,9.1189575E-1,1.0390171E0,3.9982605E-1,7.3495355E0,-2.7096078E-2,4.783501E-2,-2.1813408E-2,-2.989204E-2,-2.3960179E-2,-3.048194E-2,3.374777E-2,-8.192293E-3,3.6585692E-2,1.0540783E-2,2.8005196E-2,4.2365707E-2,5.4766294E-2,4.87706E-2,8.918199E-3],"split_indices":[0,6,3,3,7,6,7,7,7,4,3,7,3,0,0,0,0,0,0,0,0,0,0,0,0,0,0,0,0],"split_type":[0,0,0,0,0,0,0,0,0,0,0,0,0,0,0,0,0,0,0,0,0,0,0,0,0,0,0,0,0],"sum_hessian":[9.558252E2,7.853224E2,1.7050276E2,7.4052325E2,4.4799168E1,1.6571608E2,4.786675E0,3.9880242E0,7.365352E2,1.2454466E1,3.23447E1,2.5852246E0,1.6313086E2,3.395701E0,1.3909738E0,2.9370134E0,1.0510108E0,2.4392543E2,4.9260977E2,1.1445109E1,1.0093566E0,1.8813812E1,1.353089E1,1.4851763E0,1.1000484E0,1.5373563E2,9.395235E0,1.691655E0,1.704046E0],"tree_param":{"num_deleted":"0","num_feature":"11","num_nodes":"29","size_leaf_vector":"1"}},{"base_weights":[1.2306263E-1,-4.3353254E-1,2.0130664E-1,-5.4373634E-1,2.0976141E-1,1.0624196E-1,4.1601297E-1,8.629009E-3,-5.530356E-1,-5.1524866E-1,3.4985965E-1,6.1436737E-1,4.416708E-2,4.4903338E-1,1.022263E-1,-2.8568715E-2,-1.7351564E-2,-7.176508E-3,-3.1166648E-2,3.5543986E-2,9.276523E-3,3.3900127E-2,-3.0733604E-2,9.7934855E-3,-3.1119988E-3,1.4951924E-2,2.7997404E-2,-3.2724664E-3,2.3884177E-2],"categories":[],"categories_nodes":[],"categories_segments":[],"categories_sizes":[],"default_left":[0,0,0,0,0,0,0,0,0,0,0,0,0,0,0,0,0,0,0,0,0,0,0,0,0,0,0,0,0],"id":39,"left_children":[1,3,5,7,9,11,13,-1,15,17,19,21,23,25,27,-1,-1,-1,-1,-1,-1,-1,-1,-1,-1,-1,-1,-1,-1],"loss_changes":[5.838263E1,1.177301E1,2.3957085E1,9.884834E-1,2.5818515E0,2.569153E1,3.7109184E0,0E0,4.2802048E-1,1.2300098E-1,1.1713908E0,7.1441307E0,1.1737808E1,5.338257E0,2.216455E0,0E0,0E0,0E0,0E0,0E0,0E0,0E0,0E0,0E0,0E0,0E0,0E0,0E0,0E0],"parents":[2147483647,0,0,1,1,2,2,3,3,4,4,5,5,6,6,8,8,9,9,10,10,11,11,12,12,13,13,14,14],"right_children":[2,4,6,8,10,12,14,-1,16,18,20,22,24,26,28,-1,-1,-1,-1,-1,-1,-1,-1,-1,-1,-1,-1,-1,-1],"split_conditions":[4.5991516E-1,1.1803609E0,1.0550073E0,2.379303E-1,1.8092346E-1,1.044848E0,5.950928E-4,8.629009E-3,1.342926E-1,2.6004028E-1,1.3063828E0,1.7089844E-3,9.786682E-1,1.0582099E0,2.1903665E0,-2.8568715E-2,-1.7351564E-2,-7.176508E-3,-3.1166648E-2,3.5543986E-2,9.276523E-3,3.3900127E-2,-3.0733604E-2,9.7934855E-3,-3.1119988E-3,1.4951924E-2,2.7997404E-2,-3.2724664E-3,2.3884177E-2],"split_indices":[3,7,7,3,1,7,2,0,1,4,7,2,3,7,8,0,0,0,0,0,0,0,0,0,0,0,0,0,0],"split_type":[0,0,0,0,0,0,0,0,0,0,0,0,0,0,0,0,0,0,0,0,0,0,0,0,0,0,0,0,0],"sum_hessian":[1.3390792E3,1.6476186E2,1.1743174E3,1.4073045E2,2.4031399E1,8.1445276E2,3.5986462E2,1.6910464E0,1.3903941E2,3.6748946E0,2.0356504E1,8.818114E1,7.262716E2,3.2540598E2,3.4458656E1,1.26859474E2,1.2179932E1,1.0900432E0,2.5848515E0,5.847335E0,1.450917E1,8.405334E1,4.1277986E0,2.9923596E2,4.2703568E2,1.391182E2,1.8628778E2,2.4105991E1,1.0352666E1],"tree_param":{"num_deleted":"0","num_feature":"11","num_nodes":"29","size_leaf_vector":"1"}},{"base_weights":[5.4476254E-2,-4.9608737E-1,1.3215606E-1,-5.516039E-1,1.0443839E-1,3.2023817E-1,-6.994713E-2,-5.9623736E-1,-3.00609E-1,3.4001446E-1,-1.9525898E-1,5.0302726E-1,5.518702E-2,-4.6690196E-1,7.138563E-3,-3.0309675E-2,4.481072E-3,-1.921756E-2,3.9738055E-2,2.5230078E-2,-7.2005964E-3,-2.6390672E-2,4.1032042E-2,-2.199273E-2,2.6535911E-2,-2.2877043E-3,1.37547245E-2,-2.5345722E-2,1.0121985E-2,-2.1668212E-3,2.414538E-2],"categories":[],"categories_nodes":[],"categories_segments":[],"categories_sizes":[],"default_left":[0,0,0,0,0,0,0,0,0,0,0,0,0,0,0,0,0,0,0,0,0,0,0,0,0,0,0,0,0,0,0],"id":40,"left_children":[1,3,5,7,9,11,13,15,17,19,21,23,25,27,29,-1,-1,-1,-1,-1,-1,-1,-1,-1,-1,-1,-1,-1,-1,-1,-1],"loss_changes":[5.532242E1,5.361511E0,4.3091595E1,1.5515633E0,1.0185255E0,2.8431225E1,1.673092E1,8.7301636E-1,2.2740839E0,6.73365E-1,2.3989632E0,9.187668E0,5.3381605E0,2.4325314E0,1.1016391E1,0E0,0E0,0E0,0E0,0E0,0E0,0E0,0E0,0E0,0E0,0E0,0E0,0E0,0E0,0E0,0E0],"parents":[2147483647,0,0,1,1,2,2,3,3,4,4,5,5,6,6,7,7,8,8,9,9,10,10,11,11,12,12,13,13,14,14],"right_children":[2,4,6,8,10,12,14,16,18,20,22,24,26,28,30,-1,-1,-1,-1,-1,-1,-1,-1,-1,-1,-1,-1,-1,-1,-1,-1],"split_conditions":[1.0436333E0,1.6571045E-2,2.4550967E-1,6.796265E-2,2.257377E-1,5.4271703E0,5.2279496E0,6.2713623E-3,5.704847E0,4.3029785E-3,4.6081543E-3,9.446716E-2,2.9720576E7,1.1696461E1,8.453369E-3,-3.0309675E-2,4.481072E-3,-1.921756E-2,3.9738055E-2,2.5230078E-2,-7.2005964E-3,-2.6390672E-2,4.1032042E-2,-2.199273E-2,2.6535911E-2,-2.2877043E-3,1.37547245E-2,-2.5345722E-2,1.0121985E-2,-2.1668212E-3,2.414538E-2],"split_indices":[7,1,8,5,8,0,0,2,0,2,2,5,10,8,2,0,0,0,0,0,0,0,0,0,0,0,0,0,0,0,0],"split_type":[0,0,0,0,0,0,0,0,0,0,0,0,0,0,0,0,0,0,0,0,0,0,0,0,0,0,0,0,0,0,0],"sum_hessian":[1.2922904E3,1.5945357E2,1.1328368E3,1.4599736E2,1.3456215E1,5.866209E2,5.462159E2,1.23371E2,2.2626354E1,7.496419E0,5.9597964E0,3.4692184E2,2.3969908E2,8.841127E1,4.5780463E2,1.2166299E2,1.7080194E0,2.1320904E1,1.3054491E0,5.578325E0,1.9180938E0,4.670977E0,1.2888193E0,9.685539E0,3.372363E2,1.6455954E2,7.513954E1,8.353876E1,4.872515E0,4.1430493E2,4.3499718E1],"tree_param":{"num_deleted":"0","num_feature":"11","num_nodes":"31","size_leaf_vector":"1"}},{"base_weights":[-2.4690378E-1,-4.8077208E-1,7.99953E-1,-5.071337E-1,-3.1875845E-2,8.242388E-1,3.7478963E-1,-5.191363E-1,1.1575743E-1,1.5920062E-1,-3.0329907E-2,8.2919073E-1,2.1225145E-2,4.2009596E-2,3.8014762E-2,-2.6257265E-2,4.3687983E-3,-1.8688925E-2,3.5109963E-2,1.2663285E-2,-2.8241722E-2,3.7924E-2,4.378297E-2,1.5449757E-2,-2.8395558E-2],"categories":[],"categories_nodes":[],"categories_segments":[],"categories_sizes":[],"default_left":[0,0,0,0,0,0,0,0,0,0,0,0,0,0,0,0,0,0,0,0,0,0,0,0,0],"id":41,"left_children":[1,3,5,7,9,11,13,15,17,19,-1,21,-1,-1,23,-1,-1,-1,-1,-1,-1,-1,-1,-1,-1],"loss_changes":[2.3202753E2,9.15509E0,1.6329193E0,5.4978485E0,4.823549E0,1.4731598E-1,1.5937957E0,2.6383057E0,4.217849E0,2.3211124E0,0E0,1.9631958E-1,0E0,0E0,1.1521142E0,0E0,0E0,0E0,0E0,0E0,0E0,0E0,0E0,0E0,0E0],"parents":[2147483647,0,0,1,1,2,2,3,3,4,4,5,5,6,6,7,7,8,8,9,9,11,11,14,14],"right_children":[2,4,6,8,10,12,14,16,18,20,-1,22,-1,-1,24,-1,-1,-1,-1,-1,-1,-1,-1,-1,-1],"split_conditions":[7.1537185E0,2.1438599E-2,5.264282E-3,4.6940613E-1,5.3725934E0,4.5991516E-1,2.8839111E-3,6.8133745E0,5.667892E0,1.5258789E-5,-3.0329907E-2,3.70636E-1,2.1225145E-2,4.2009596E-2,5.0154114E-1,-2.6257265E-2,4.3687983E-3,-1.8688925E-2,3.5109963E-2,1.2663285E-2,-2.8241722E-2,3.7924E-2,4.378297E-2,1.5449757E-2,-2.8395558E-2],"split_indices":[0,6,6,4,0,3,2,0,0,2,0,3,0,0,3,0,0,0,0,0,0,0,0,0,0],"split_type":[0,0,0,0,0,0,0,0,0,0,0,0,0,0,0,0,0,0,0,0,0,0,0,0,0],"sum_hessian":[9.4643646E2,7.7383234E2,1.7260414E2,7.308481E2,4.2984264E1,1.6283357E2,9.770568E0,7.171132E2,1.3734894E1,3.253045E1,1.0453817E1,1.6031047E2,2.5230975E0,3.7881572E0,5.982411E0,7.1014453E2,6.9686537E0,7.5847735E0,6.1501203E0,2.907782E1,3.4526277E0,6.700741E1,9.330306E1,4.3030405E0,1.6793705E0],"tree_param":{"num_deleted":"0","num_feature":"11","num_nodes":"25","size_leaf_vector":"1"}},{"base_weights":[1.13703564E-1,1.873367E-1,-5.550479E-1,5.7939035E-1,1.4003168E-1,-5.7039714E-1,-2.504387E-1,7.3416126E-1,4.6594E-1,-6.013965E-2,2.3535886E-1,-6.181405E-1,-4.5120776E-1,4.267813E-2,-5.4041773E-1,3.824464E-2,3.0809285E-3,2.7885417E-2,1.2016669E-3,-1.5768588E-2,1.1421255E-2,-1.2260511E-2,1.2993403E-2,-3.1165987E-2,-7.06087E-3,-2.5423158E-2,-4.5030937E-3,-4.290525E-3,-3.1216169E-2],"categories":[],"categories_nodes":[],"categories_segments":[],"categories_sizes":[],"default_left":[0,0,0,0,0,0,0,0,0,0,0,0,0,0,0,0,0,0,0,0,0,0,0,0,0,0,0,0,0],"id":42,"left_children":[1,3,5,7,9,11,13,15,17,19,21,23,25,-1,27,-1,-1,-1,-1,-1,-1,-1,-1,-1,-1,-1,-1,-1,-1],"loss_changes":[6.535514E1,2.2122025E1,5.4415894E-1,2.0853462E0,2.0367239E1,5.715904E-1,2.5380185E0,1.0818825E0,3.0558262E0,2.5416794E1,8.54628E0,1.7302322E-1,7.543435E-1,0E0,2.0262384E-1,0E0,0E0,0E0,0E0,0E0,0E0,0E0,0E0,0E0,0E0,0E0,0E0,0E0,0E0],"parents":[2147483647,0,0,1,1,2,2,3,3,4,4,5,5,6,6,7,7,8,8,9,9,10,10,11,11,12,12,14,14],"right_children":[2,4,6,8,10,12,14,16,18,20,22,24,26,-1,28,-1,-1,-1,-1,-1,-1,-1,-1,-1,-1,-1,-1,-1,-1],"split_conditions":[6.6432614E0,5.2279496E0,3.0329895E-1,1.0818449E0,5.3810873E0,7.996543E0,1.0072327E-1,1.4228821E-1,8.937988E-1,1.2164307E-1,3.9520264E-2,1.1803609E0,2.9720576E7,4.267813E-2,4.215919E6,3.824464E-2,3.0809285E-3,2.7885417E-2,1.2016669E-3,-1.5768588E-2,1.1421255E-2,-1.2260511E-2,1.2993403E-2,-3.1165987E-2,-7.06087E-3,-2.5423158E-2,-4.5030937E-3,-4.290525E-3,-3.1216169E-2],"split_indices":[0,0,4,7,0,0,1,1,9,5,5,7,10,0,10,0,0,0,0,0,0,0,0,0,0,0,0,0,0],"split_type":[0,0,0,0,0,0,0,0,0,0,0,0,0,0,0,0,0,0,0,0,0,0,0,0,0,0,0,0,0],"sum_hessian":[1.3256608E3,1.1944999E3,1.3116092E2,1.2800427E2,1.0664956E3,1.2445345E2,6.7074666E0,5.298527E1,7.5019E1,3.441087E2,7.2238684E2,8.7364815E1,3.708864E1,1.1931539E0,5.5143127E0,5.0604275E1,2.380998E0,6.2010574E1,1.3008421E1,1.8257597E2,1.6153273E2,3.4835705E1,6.8755115E2,8.627443E1,1.0903867E0,3.1837263E1,5.2513757E0,1.0167634E0,4.4975495E0],"tree_param":{"num_deleted":"0","num_feature":"11","num_nodes":"29","size_leaf_vector":"1"}},{"base_weights":[8.417972E-2,-4.814031E-1,1.5539466E-1,-3.295959E-1,-3.1232769E-2,3.4950122E-1,-6.51324E-3,-5.9870327E-1,-2.1913017E-1,5.2754486E-1,1.3886964E-1,-4.229914E-1,5.9261616E-2,-1.2397127E-3,-3.2987487E-2,3.1859335E-2,-1.304383E-2,1.3620868E-2,3.206986E-2,9.809421E-3,-1.2029139E-2,-2.485053E-2,3.1399068E-3,9.05302E-3,-6.3567096E-3],"categories":[],"categories_nodes":[],"categories_segments":[],"categories_sizes":[],"default_left":[0,0,0,0,0,0,0,0,0,0,0,0,0,0,0,0,0,0,0,0,0,0,0,0,0],"id":43,"left_children":[1,3,5,7,-1,9,11,13,15,17,19,21,23,-1,-1,-1,-1,-1,-1,-1,-1,-1,-1,-1,-1],"loss_changes":[5.086036E1,2.968422E0,3.523352E1,2.0042377E0,0E0,1.908353E1,1.6769949E1,6.9164276E-1,1.875988E0,7.933052E0,5.1180334E0,3.0178957E0,1.2015114E1,0E0,0E0,0E0,0E0,0E0,0E0,0E0,0E0,0E0,0E0,0E0,0E0],"parents":[2147483647,0,0,1,1,2,2,3,3,5,5,6,6,7,7,8,8,9,9,10,10,11,11,12,12],"right_children":[2,4,6,8,-1,10,12,14,16,18,20,22,24,-1,-1,-1,-1,-1,-1,-1,-1,-1,-1,-1,-1],"split_conditions":[1.0436333E0,7.99066E0,2.4192503E-1,5.3850203E0,-3.1232769E-2,5.4220653E0,5.2279496E0,7.9599E-1,2.89917E-3,1.6714718E7,9.806824E-1,1.4691206E0,1.499939E-2,-1.2397127E-3,-3.2987487E-2,3.1859335E-2,-1.304383E-2,1.3620868E-2,3.206986E-2,9.809421E-3,-1.2029139E-2,-2.485053E-2,3.1399068E-3,9.05302E-3,-6.3567096E-3],"split_indices":[7,0,8,0,0,0,0,3,6,10,3,7,6,0,0,0,0,0,0,0,0,0,0,0,0],"split_type":[0,0,0,0,0,0,0,0,0,0,0,0,0,0,0,0,0,0,0,0,0,0,0,0,0],"sum_hessian":[1.2613059E3,1.4073343E2,1.1205725E3,6.912777E1,7.160566E1,5.0934937E2,6.1122314E2,1.9474855E1,4.9652912E1,2.7561987E2,2.3372949E2,8.299483E1,5.2822833E2,1.939967E0,1.753489E1,1.9765996E0,4.7676315E1,8.5568596E1,1.9005127E2,2.0326627E2,3.0463223E1,7.201103E1,1.0983791E1,3.1948065E2,2.0874765E2],"tree_param":{"num_deleted":"0","num_feature":"11","num_nodes":"25","size_leaf_vector":"1"}},{"base_weights":[-2.3697138E-1,-4.4022545E-1,7.84169E-1,-1.2536065E-1,-5.2234256E-1,3.1975128E-3,7.926492E-1,-2.3167562E-1,2.5105786E-1,-5.6218714E-1,-4.4535822E-1,3.987164E-2,1.3407707E-2,-3.4338383E-3,-2.0664E-2,-2.021742E-2,2.3912331E-2,-7.351021E-3,-2.8307471E-2,2.36893E-2,-2.4120932E-2],"categories":[],"categories_nodes":[],"categories_segments":[],"categories_sizes":[],"default_left":[0,0,0,0,0,0,0,0,0,0,0,0,0,0,0,0,0,0,0,0,0],"id":44,"left_children":[1,3,5,7,9,-1,11,13,15,17,19,-1,-1,-1,-1,-1,-1,-1,-1,-1,-1],"loss_changes":[1.9223882E2,1.9930374E1,9.1400146E-1,6.4468546E0,1.7527618E0,0E0,2.7435303E-1,3.6951385E0,5.3914223E0,6.1888885E-1,7.3087845E0,0E0,0E0,0E0,0E0,0E0,0E0,0E0,0E0,0E0,0E0],"parents":[2147483647,0,0,1,1,2,2,3,3,4,4,6,6,7,7,8,8,9,9,10,10],"right_children":[2,4,6,8,10,-1,12,14,16,18,20,-1,-1,-1,-1,-1,-1,-1,-1,-1,-1],"split_conditions":[9.766388E-1,9.6728516E-1,2.89917E-3,9.1189575E-1,2.4991247E-1,3.1975128E-3,5.0154114E-1,6.496887E-1,1.776123E-2,1.0390171E0,1.0496172E0,3.987164E-2,1.3407707E-2,-3.4338383E-3,-2.0664E-2,-2.021742E-2,2.3912331E-2,-7.351021E-3,-2.8307471E-2,2.36893E-2,-2.4120932E-2],"split_indices":[9,3,6,3,8,0,3,3,6,7,7,0,0,0,0,0,0,0,0,0,0],"split_type":[0,0,0,0,0,0,0,0,0,0,0,0,0,0,0,0,0,0,0,0,0],"sum_hessian":[9.248931E2,7.715946E2,1.532985E2,1.5986841E2,6.117262E2,1.8337008E0,1.5146478E2,1.2480965E2,3.5058758E1,4.0102005E2,2.1070616E2,1.4983804E2,1.6267511E0,6.6137276E1,5.8672375E1,8.924111E0,2.6134645E1,3.971209E0,3.9704883E2,7.938151E0,2.02768E2],"tree_param":{"num_deleted":"0","num_feature":"11","num_nodes":"21","size_leaf_vector":"1"}},{"base_weights":[1.0964014E-1,1.8309283E-1,-5.492779E-1,5.805326E-1,1.3757212E-1,-1.6635243E-3,-5.5560416E-1,6.832255E-2,6.298074E-1,-5.300581E-2,2.3551849E-1,-5.968123E-1,-4.4662154E-1,-2.8992413E-2,2.0862842E-2,2.6072234E-2,3.8005646E-2,-8.623465E-3,2.1348273E-2,1.9678464E-2,7.0892437E-3,-3.0771932E-2,-1.9428974E-2,-1.264336E-2,-2.671375E-2],"categories":[],"categories_nodes":[],"categories_segments":[],"categories_sizes":[],"default_left":[0,0,0,0,0,0,0,0,0,0,0,0,0,0,0,0,0,0,0,0,0,0,0,0,0],"id":45,"left_children":[1,3,5,7,9,-1,11,13,15,17,19,21,23,-1,-1,-1,-1,-1,-1,-1,-1,-1,-1,-1,-1],"loss_changes":[6.389051E1,2.143705E1,4.230194E-1,3.0535622E0,1.9900476E1,0E0,4.540596E-1,2.666079E0,1.3703728E0,2.0805664E1,1.0402603E1,2.42733E-1,5.755954E-1,0E0,0E0,0E0,0E0,0E0,0E0,0E0,0E0,0E0,0E0,0E0,0E0],"parents":[2147483647,0,0,1,1,2,2,3,3,4,4,6,6,7,7,8,8,9,9,10,10,11,11,12,12],"right_children":[2,4,6,8,10,-1,12,14,16,18,20,22,24,-1,-1,-1,-1,-1,-1,-1,-1,-1,-1,-1,-1],"split_conditions":[6.6432614E0,5.2082424E0,8.307953E-1,6.292114E-1,5.3850203E0,-1.6635243E-3,7.996543E0,2.1903665E0,9.16687E-1,1.2712097E-1,4.215919E6,1.1734009E-2,3.768921E-3,-2.8992413E-2,2.0862842E-2,2.6072234E-2,3.8005646E-2,-8.623465E-3,2.1348273E-2,1.9678464E-2,7.0892437E-3,-3.0771932E-2,-1.9428974E-2,-1.264336E-2,-2.671375E-2],"split_indices":[0,0,9,9,0,0,0,8,9,5,10,2,5,0,0,0,0,0,0,0,0,0,0,0,0],"split_type":[0,0,0,0,0,0,0,0,0,0,0,0,0,0,0,0,0,0,0,0,0,0,0,0,0],"sum_hessian":[1.3185317E3,1.1866152E3,1.3191653E2,1.2133826E2,1.065277E3,1.6356233E0,1.3028091E2,1.07531185E1,1.10585144E2,3.617112E2,7.035658E2,9.291143E1,3.736948E1,3.6472332E0,7.105885E0,6.174147E1,4.8843674E1,2.8988098E2,7.183022E1,2.6132617E2,4.4223962E2,8.4385445E1,8.525986E0,1.2244948E1,2.5124533E1],"tree_param":{"num_deleted":"0","num_feature":"11","num_nodes":"25","size_leaf_vector":"1"}},{"base_weights":[7.694349E-2,-5.3005546E-1,1.5050098E-1,-5.9590834E-1,-1.2156248E-1,2.0324972E-1,-3.5261106E-1,-6.10813E-1,1.6482021E-1,-2.3124745E-1,6.343257E-2,7.877824E-2,3.697011E-1,-4.089308E-1,2.1447676E-1,-9.55648E-3,-3.0783638E-2,1.9218257E-2,-4.2293957E-3,1.3576825E-2,-1.8784484E-2,1.2624462E-2,-8.644723E-5,-4.678636E-4,2.263679E-2,-1.1654531E-2,-2.9862812E-2,-2.6938368E-2,1.8532744E-2],"categories":[],"categories_nodes":[],"categories_segments":[],"categories_sizes":[],"default_left":[0,0,0,0,0,0,0,0,0,0,0,0,0,0,0,0,0,0,0,0,0,0,0,0,0,0,0,0,0],"id":46,"left_children":[1,3,5,7,9,11,13,15,17,19,-1,21,23,25,27,-1,-1,-1,-1,-1,-1,-1,-1,-1,-1,-1,-1,-1,-1],"loss_changes":[5.7078957E1,3.681076E0,3.0284506E1,1.3981895E0,3.1678066E0,2.1366005E1,3.5042048E0,1.7917252E-1,1.6289748E-1,1.4153475E0,0E0,8.266315E0,1.3894806E1,3.1998215E0,1.2899046E0,0E0,0E0,0E0,0E0,0E0,0E0,0E0,0E0,0E0,0E0,0E0,0E0,0E0,0E0],"parents":[2147483647,0,0,1,1,2,2,3,3,4,4,5,5,6,6,7,7,8,8,9,9,11,11,12,12,13,13,14,14],"right_children":[2,4,6,8,10,12,14,16,18,20,-1,22,24,26,28,-1,-1,-1,-1,-1,-1,-1,-1,-1,-1,-1,-1,-1,-1],"split_conditions":[4.91333E-3,1.0559082E-2,1.3096619E-1,9.9505615E-1,9.766388E-1,1.6777216E7,2.593994E-4,3.2014465E-1,9.4770813E-1,4.194304E6,6.343257E-2,5.3725934E0,1.053772E-1,1.4465332E-1,1.363678E-1,-9.55648E-3,-3.0783638E-2,1.9218257E-2,-4.2293957E-3,1.3576825E-2,-1.8784484E-2,1.2624462E-2,-8.644723E-5,-4.678636E-4,2.263679E-2,-1.1654531E-2,-2.9862812E-2,-2.6938368E-2,1.8532744E-2],"split_indices":[5,1,5,3,9,10,2,3,9,10,0,0,5,5,5,0,0,0,0,0,0,0,0,0,0,0,0,0,0],"split_type":[0,0,0,0,0,0,0,0,0,0,0,0,0,0,0,0,0,0,0,0,0,0,0,0,0,0,0,0,0],"sum_hessian":[1.27699E3,1.3768724E2,1.1393027E3,1.1837474E2,1.9312502E1,1.0314578E3,1.0784506E2,1.1619667E2,2.17807E0,1.828656E1,1.0259414E0,5.9056946E2,4.4088824E2,9.8229E1,9.616063E0,1.5609205E0,1.1463575E2,1.0144936E0,1.1635766E0,3.982849E0,1.4303711E1,1.8668646E2,4.0388303E2,7.930408E1,3.6158417E2,5.1376972E1,4.6852028E1,1.4410512E0,8.175012E0],"tree_param":{"num_deleted":"0","num_feature":"11","num_nodes":"29","size_leaf_vector":"1"}},{"base_weights":[-2.4793434E-1,-4.6879122E-1,7.571132E-1,-5.116982E-1,-2.2599545E-1,7.781019E-1,1.1963416E-2,-5.161682E-1,1.2268325E-1,1.5092827E-1,-3.5401458E-1,7.530198E-1,5.317853E-2,2.4402736E-2,-2.9096464E-2,-2.3776345E-2,-2.8687567E-2,2.7706686E-2,-2.6124373E-2,-1.1380418E-2,3.660105E-2,-2.3407228E-2,8.246765E-3,3.857459E-2,-1.0713308E-2],"categories":[],"categories_nodes":[],"categories_segments":[],"categories_sizes":[],"default_left":[0,0,0,0,0,0,0,0,0,0,0,0,0,0,0,0,0,0,0,0,0,0,0,0,0],"id":47,"left_children":[1,3,5,7,9,11,13,15,17,19,21,23,-1,-1,-1,-1,-1,-1,-1,-1,-1,-1,-1,-1,-1],"loss_changes":[2.0179056E2,7.702896E0,2.5575485E0,1.8257294E0,5.468428E0,7.403717E-1,1.5545797E0,1.3341217E0,1.4894694E0,6.449584E0,5.0333614E0,2.7301865E0,0E0,0E0,0E0,0E0,0E0,0E0,0E0,0E0,0E0,0E0,0E0,0E0,0E0],"parents":[2147483647,0,0,1,1,2,2,3,3,4,4,5,5,6,6,7,7,8,8,9,9,10,10,11,11],"right_children":[2,4,6,8,10,12,14,16,18,20,22,24,-1,-1,-1,-1,-1,-1,-1,-1,-1,-1,-1,-1,-1],"split_conditions":[7.1537185E0,1.0714449E0,2.9159546E-2,6.6432614E0,5.822754E-2,3.9982605E-1,1.0266113E-1,1.6714718E7,1.3447571E-1,3.274536E-2,4.6940613E-1,1.6571045E-2,5.317853E-2,2.4402736E-2,-2.9096464E-2,-2.3776345E-2,-2.8687567E-2,2.7706686E-2,-2.6124373E-2,-1.1380418E-2,3.660105E-2,-2.3407228E-2,8.246765E-3,3.857459E-2,-1.0713308E-2],"split_indices":[0,7,5,0,4,3,4,10,4,1,4,1,0,0,0,0,0,0,0,0,0,0,0,0,0],"split_type":[0,0,0,0,0,0,0,0,0,0,0,0,0,0,0,0,0,0,0,0,0,0,0,0,0],"sum_hessian":[9.077831E2,7.4445715E2,1.6332594E2,6.321836E2,1.12273544E2,1.5883005E2,4.495888E0,6.278528E2,4.3308287E0,2.8442242E1,8.383131E1,1.4767392E2,1.1156134E1,2.5448923E0,1.9509959E0,3.7078644E2,2.570663E2,2.63755E0,1.6932783E0,1.7407057E1,1.1035186E1,6.875854E1,1.5072763E1,1.4500598E2,2.6679296E0],"tree_param":{"num_deleted":"0","num_feature":"11","num_nodes":"25","size_leaf_vector":"1"}},{"base_weights":[9.21038E-2,1.6551706E-1,-3.3081344E-1,5.792752E-1,1.1266282E-1,-5.0781447E-1,-1.9825619E-2,7.0798683E-1,4.5272842E-1,-3.757794E-2,3.0133417E-1,-5.347876E-1,1.4454333E-1,-1.1203157E-1,5.401951E-1,3.7132E-2,-2.2601163E-2,1.9718887E-2,3.321353E-2,-8.164064E-3,8.857825E-3,8.659867E-3,1.9788673E-2,-2.7287027E-2,9.358655E-3,2.7925173E-2,-2.3843689E-2,-1.2562475E-2,1.6762603E-2,3.8521115E-2,9.690783E-3],"categories":[],"categories_nodes":[],"categories_segments":[],"categories_sizes":[],"default_left":[0,0,0,0,0,0,0,0,0,0,0,0,0,0,0,0,0,0,0,0,0,0,0,0,0,0,0,0,0,0,0],"id":48,"left_children":[1,3,5,7,9,11,13,15,17,19,21,23,25,27,29,-1,-1,-1,-1,-1,-1,-1,-1,-1,-1,-1,-1,-1,-1,-1,-1],"loss_changes":[4.037818E1,2.4192364E1,1.058559E1,1.8815308E0,2.7866604E1,2.1958008E0,3.6606836E0,2.6303482E0,6.663637E-1,1.4796087E1,5.2390556E0,9.8283386E-1,1.4865695E0,3.8269527E0,7.248061E-1,0E0,0E0,0E0,0E0,0E0,0E0,0E0,0E0,0E0,0E0,0E0,0E0,0E0,0E0,0E0,0E0],"parents":[2147483647,0,0,1,1,2,2,3,3,4,4,5,5,6,6,7,7,8,8,9,9,10,10,11,11,12,12,13,13,14,14],"right_children":[2,4,6,8,10,12,14,16,18,20,22,24,26,28,30,-1,-1,-1,-1,-1,-1,-1,-1,-1,-1,-1,-1,-1,-1,-1,-1],"split_conditions":[5.950928E-4,1.00372314E-1,5.9713423E-1,6.796265E-2,1.4846802E-2,9.446716E-2,3.648529E-1,3.9426572E0,2.2857666E-2,2.4550967E-1,1.0506269E0,3.92807E-1,1.1732483E-1,7.382202E-2,3.6010742E-3,3.7132E-2,-2.2601163E-2,1.9718887E-2,3.321353E-2,-8.164064E-3,8.857825E-3,8.659867E-3,1.9788673E-2,-2.7287027E-2,9.358655E-3,2.7925173E-2,-2.3843689E-2,-1.2562475E-2,1.6762603E-2,3.8521115E-2,9.690783E-3],"split_indices":[2,5,8,5,6,5,1,8,4,8,7,4,4,5,6,0,0,0,0,0,0,0,0,0,0,0,0,0,0,0,0],"split_type":[0,0,0,0,0,0,0,0,0,0,0,0,0,0,0,0,0,0,0,0,0,0,0,0,0,0,0,0,0,0,0],"sum_hessian":[1.2991377E3,1.1072389E3,1.918988E2,1.2485537E2,9.8238354E2,1.220925E2,6.980631E1,6.0759308E1,6.409606E1,5.4711285E2,4.3527066E2,1.173313E2,4.761203E0,6.028115E1,9.525159E0,5.9171566E1,1.5877419E0,5.136105E1,1.273501E1,3.4517233E2,2.0194055E2,1.8528703E2,2.4998364E2,1.15698074E2,1.6332251E0,2.887981E0,1.8732219E0,4.6139328E1,1.4141822E1,5.3542533E0,4.1709056E0],"tree_param":{"num_deleted":"0","num_feature":"11","num_nodes":"31","size_leaf_vector":"1"}},{"base_weights":[6.941599E-2,1.7549759E-1,-2.8252986E-1,2.8748372E-1,-1.6195673E-2,-4.4808105E-1,3.950269E-1,-2.6449862E-1,3.5495973E-1,3.2247066E-2,-3.8640913E-1,-5.101513E-1,-2.0836328E-1,6.4520025E-1,1.8133439E-1,-2.6896292E-2,-6.953945E-3,3.4104493E-2,1.3751556E-2,-1.7139878E-2,3.9170845E-3,-1.5784973E-2,-3.2167066E-2,-2.6589403E-2,-1.125737E-3,-2.0178637E-2,4.63701E-3,3.9533447E-2,-7.019415E-3,1.4628339E-2,-2.6321227E-2],"categories":[],"categories_nodes":[],"categories_segments":[],"categories_sizes":[],"default_left":[0,0,0,0,0,0,0,0,0,0,0,0,0,0,0,0,0,0,0,0,0,0,0,0,0,0,0,0,0,0,0],"id":49,"left_children":[1,3,5,7,9,11,13,15,17,19,21,23,25,27,29,-1,-1,-1,-1,-1,-1,-1,-1,-1,-1,-1,-1,-1,-1,-1,-1],"loss_changes":[4.7356064E1,2.0920576E1,3.304508E1,2.2957668E1,6.4591413E0,3.4635963E0,3.0399132E0,2.2702017E0,1.4243561E1,5.5219116E0,6.5553427E-1,1.9711876E0,2.925692E0,3.084364E0,2.592546E0,0E0,0E0,0E0,0E0,0E0,0E0,0E0,0E0,0E0,0E0,0E0,0E0,0E0,0E0,0E0,0E0],"parents":[2147483647,0,0,1,1,2,2,3,3,4,4,5,5,6,6,7,7,8,8,9,9,10,10,11,11,12,12,13,13,14,14],"right_children":[2,4,6,8,10,12,14,16,18,20,22,24,26,28,30,-1,-1,-1,-1,-1,-1,-1,-1,-1,-1,-1,-1,-1,-1,-1,-1],"split_conditions":[4.5776367E-5,2.461749E-1,6.454468E-3,1.0179138E-1,1.3096619E-1,1.078186E-1,3.5247803E-3,2.213158E-1,1.1779785E-2,1.10946655E-1,9.4763184E-1,1.4223752E0,3.3569336E-4,2.9100037E-1,9.4696045E-1,-2.6896292E-2,